svm_type c_svc
kernel_type linear
nr_class 2
total_sv 3285
rho 0.7775767396975778
label -1 1
nr_sv 1213 2072
SV
1.0 1252:1.0 2102:1.0 
1.0 790:1.0 1561:1.0 
1.0 408:1.0 2750:1.0 
1.0 727:1.0 1753:1.0 
1.0 134:1.0 2132:1.0 
1.0 1434:1.0 2315:1.0 
0.9257455755760958 1312:1.0 2682:1.0 
1.0 92:1.0 2346:1.0 
1.0 370:1.0 1870:1.0 
1.0 546:1.0 2109:1.0 
1.0 532:1.0 1899:1.0 
1.0 1237:1.0 2528:1.0 
1.0 372:1.0 2856:1.0 
1.0 1129:1.0 2201:1.0 
1.0 1239:1.0 1851:1.0 
0.9998599807537103 1228:1.0 2799:1.0 
0.8888290963679499 628:1.0 2239:1.0 
1.0 628:1.0 2354:1.0 
1.0 382:1.0 1828:1.0 
1.0 716:1.0 1907:1.0 
0.3891728323837311 295:1.0 1536:1.0 
1.0 326:1.0 2807:1.0 
1.0 1096:1.0 1669:1.0 
1.0 831:1.0 2049:1.0 
1.0 771:1.0 1712:1.0 
1.0 766:1.0 1908:1.0 
0.38886184756119213 126:1.0 2412:1.0 
1.0 628:1.0 2643:1.0 
0.9108704417152766 806:1.0 2842:1.0 
1.0 164:1.0 1977:1.0 
1.0 1386:1.0 2253:1.0 
1.0 799:1.0 2056:1.0 
1.0 966:1.0 2975:1.0 
0.7113679770418724 1416:1.0 1802:1.0 
0.6795330251896278 59:1.0 1799:1.0 
1.0 1150:1.0 1567:1.0 
1.0 251:1.0 2011:1.0 
1.0 4:1.0 1708:1.0 
1.0 1023:1.0 1646:1.0 
1.0 1251:1.0 2963:1.0 
1.0 1057:1.0 2430:1.0 
1.0 121:1.0 1878:1.0 
1.0 934:1.0 2622:1.0 
1.0 586:1.0 2275:1.0 
1.0 342:1.0 2732:1.0 
1.0 1290:1.0 1868:1.0 
1.0 1330:1.0 2620:1.0 
1.0 549:1.0 1569:1.0 
1.0 518:1.0 2319:1.0 
0.9986986424905338 611:1.0 2476:1.0 
0.6193978008226915 1185:1.0 2016:1.0 
1.0 908:1.0 2572:1.0 
0.8885417746036299 654:1.0 2388:1.0 
1.0 1139:1.0 1533:1.0 
1.0 1414:1.0 2400:1.0 
1.0 279:1.0 2407:1.0 
1.0 1027:1.0 2395:1.0 
1.0 618:1.0 1681:1.0 
1.0 49:1.0 2549:1.0 
1.0 434:1.0 1709:1.0 
1.0 1445:1.0 2373:1.0 
1.0 1038:1.0 2693:1.0 
1.0 767:1.0 2482:1.0 
1.0 465:1.0 2956:1.0 
1.0 1459:1.0 2641:1.0 
1.0 1004:1.0 2931:1.0 
1.0 16:1.0 2962:1.0 
1.0 1223:1.0 2357:1.0 
1.0 1166:1.0 2343:1.0 
1.0 1008:1.0 2133:1.0 
1.0 1324:1.0 2948:1.0 
1.0 626:1.0 2639:1.0 
1.0 1472:1.0 2294:1.0 
0.9258929272432319 812:1.0 1524:1.0 
1.0 1249:1.0 2531:1.0 
1.0 396:1.0 2033:1.0 
1.0 179:1.0 2573:1.0 
1.0 1425:1.0 1730:1.0 
1.0 100:1.0 1914:1.0 
0.8886978047277114 1282:1.0 1670:1.0 
1.0 1191:1.0 1577:1.0 
1.0 625:1.0 2218:1.0 
0.8252219253245143 27:1.0 2761:1.0 
1.0 1252:1.0 2231:1.0 
1.0 1015:1.0 2511:1.0 
1.0 1384:1.0 1777:1.0 
1.0 466:1.0 2533:1.0 
1.0 1238:1.0 2828:1.0 
0.5560317836249743 983:1.0 1953:1.0 
1.0 451:1.0 2755:1.0 
1.0 375:1.0 2456:1.0 
1.0 1160:1.0 2293:1.0 
1.0 1344:1.0 2483:1.0 
1.0 149:1.0 2592:1.0 
1.0 1323:1.0 2078:1.0 
0.760111010186046 1125:1.0 2642:1.0 
1.0 1203:1.0 1821:1.0 
1.0 1274:1.0 2024:1.0 
1.0 241:1.0 2279:1.0 
1.0 133:1.0 2385:1.0 
1.0 1202:1.0 2286:1.0 
1.0 140:1.0 2221:1.0 
1.0 742:1.0 2447:1.0 
1.0 349:1.0 2772:1.0 
0.7108938074240815 606:1.0 2667:1.0 
1.0 356:1.0 2676:1.0 
1.0 172:1.0 2318:1.0 
1.0 274:1.0 1526:1.0 
1.0 1373:1.0 1521:1.0 
1.0 7:1.0 2172:1.0 
1.0 298:1.0 2249:1.0 
0.5614151823724514 791:1.0 1547:1.0 
1.0 472:1.0 2335:1.0 
1.0 1163:1.0 2947:1.0 
1.0 95:1.0 2807:1.0 
1.0 1302:1.0 1642:1.0 
1.0 965:1.0 2667:1.0 
1.0 1481:1.0 2333:1.0 
1.0 575:1.0 1801:1.0 
1.0 195:1.0 2670:1.0 
1.0 849:1.0 1722:1.0 
1.0 1346:1.0 2465:1.0 
1.0 663:1.0 1555:1.0 
1.0 4:1.0 2798:1.0 
1.0 1152:1.0 2945:1.0 
1.0 809:1.0 2782:1.0 
1.0 691:1.0 1510:1.0 
1.0 670:1.0 2497:1.0 
1.0 14:1.0 1514:1.0 
1.0 174:1.0 2173:1.0 
1.0 733:1.0 2159:1.0 
1.0 889:1.0 2420:1.0 
1.0 1028:1.0 1818:1.0 
0.5927990684345555 333:1.0 2590:1.0 
1.0 948:1.0 2948:1.0 
1.0 224:1.0 2559:1.0 
1.0 1383:1.0 2200:1.0 
1.0 675:1.0 1836:1.0 
1.0 1430:1.0 2567:1.0 
1.0 825:1.0 2276:1.0 
0.9042880701825335 50:1.0 2003:1.0 
1.0 278:1.0 1872:1.0 
1.0 119:1.0 2591:1.0 
1.0 106:1.0 1983:1.0 
1.0 710:1.0 1736:1.0 
1.0 1333:1.0 2264:1.0 
1.0 852:1.0 2653:1.0 
1.0 183:1.0 2053:1.0 
1.0 685:1.0 2879:1.0 
1.0 369:1.0 2745:1.0 
1.0 162:1.0 2492:1.0 
1.0 450:1.0 2369:1.0 
1.0 411:1.0 2240:1.0 
1.0 846:1.0 2095:1.0 
1.0 861:1.0 2101:1.0 
0.5924279706329983 735:1.0 2856:1.0 
1.0 545:1.0 2606:1.0 
1.0 899:1.0 2889:1.0 
1.0 172:1.0 1798:1.0 
1.0 47:1.0 1708:1.0 
1.0 8:1.0 2438:1.0 
1.0 52:1.0 1611:1.0 
1.0 520:1.0 2914:1.0 
1.0 119:1.0 2555:1.0 
1.0 756:1.0 2142:1.0 
1.0 221:1.0 1683:1.0 
1.0 464:1.0 1645:1.0 
1.0 1479:1.0 2953:1.0 
1.0 1306:1.0 1699:1.0 
0.567838049978177 845:1.0 1881:1.0 
0.4663486325581219 441:1.0 2917:1.0 
1.0 513:1.0 2905:1.0 
0.25932640881644736 1383:1.0 2905:1.0 
1.0 99:1.0 2502:1.0 
1.0 294:1.0 2532:1.0 
1.0 1323:1.0 1830:1.0 
1.0 728:1.0 2332:1.0 
1.0 800:1.0 1511:1.0 
1.0 509:1.0 1956:1.0 
0.9256794546083497 69:1.0 2309:1.0 
1.0 93:1.0 2321:1.0 
1.0 702:1.0 1579:1.0 
1.0 1337:1.0 2929:1.0 
1.0 3:1.0 1994:1.0 
1.0 1497:1.0 2290:1.0 
1.0 236:1.0 1586:1.0 
1.0 188:1.0 1586:1.0 
1.0 273:1.0 2676:1.0 
1.0 538:1.0 2003:1.0 
1.0 639:1.0 2457:1.0 
0.5549919330763254 719:1.0 2172:1.0 
0.38880994972041866 1328:1.0 1595:1.0 
1.0 691:1.0 1913:1.0 
0.6510442350276939 1115:1.0 2761:1.0 
1.0 647:1.0 1801:1.0 
1.0 188:1.0 2473:1.0 
1.0 207:1.0 2834:1.0 
1.0 423:1.0 2441:1.0 
1.0 1158:1.0 2540:1.0 
1.0 950:1.0 2833:1.0 
1.0 89:1.0 2250:1.0 
1.0 1278:1.0 1612:1.0 
1.0 1494:1.0 2599:1.0 
1.0 1361:1.0 2366:1.0 
1.0 876:1.0 1825:1.0 
1.0 405:1.0 2745:1.0 
1.0 1485:1.0 2406:1.0 
1.0 1499:1.0 2811:1.0 
1.0 529:1.0 1916:1.0 
1.0 1488:1.0 1733:1.0 
1.0 1083:1.0 2193:1.0 
1.0 142:1.0 2434:1.0 
1.0 852:1.0 1931:1.0 
1.0 527:1.0 1583:1.0 
1.0 446:1.0 2924:1.0 
1.0 553:1.0 2435:1.0 
1.0 1061:1.0 1946:1.0 
1.0 1174:1.0 1977:1.0 
0.9259694172214812 14:1.0 1974:1.0 
1.0 474:1.0 1920:1.0 
1.0 1251:1.0 2947:1.0 
1.0 1343:1.0 2801:1.0 
1.0 969:1.0 2993:1.0 
1.0 460:1.0 2904:1.0 
0.5926049405269485 1203:1.0 2341:1.0 
1.0 978:1.0 2837:1.0 
1.0 305:1.0 2336:1.0 
0.790640185549221 1463:1.0 2511:1.0 
0.46108559440626695 1185:1.0 2529:1.0 
1.0 1348:1.0 1703:1.0 
1.0 111:1.0 2941:1.0 
1.0 23:1.0 2143:1.0 
0.888731046590469 531:1.0 1702:1.0 
1.0 218:1.0 1899:1.0 
1.0 1340:1.0 2187:1.0 
1.0 89:1.0 1860:1.0 
1.0 834:1.0 2335:1.0 
1.0 1401:1.0 1782:1.0 
1.0 1248:1.0 2079:1.0 
1.0 11:1.0 2733:1.0 
0.8886639369044509 32:1.0 2426:1.0 
1.0 1210:1.0 2318:1.0 
1.0 15:1.0 2877:1.0 
1.0 103:1.0 2330:1.0 
1.0 967:1.0 2548:1.0 
1.0 238:1.0 2161:1.0 
1.0 1370:1.0 1925:1.0 
0.9260870879130274 707:1.0 1794:1.0 
1.0 1143:1.0 2652:1.0 
1.0 1354:1.0 2530:1.0 
1.0 539:1.0 2423:1.0 
0.8886975934618717 1046:1.0 2760:1.0 
1.0 1010:1.0 1533:1.0 
1.0 1496:1.0 2183:1.0 
1.0 578:1.0 1961:1.0 
0.2908842711363171 1249:1.0 2034:1.0 
1.0 400:1.0 2786:1.0 
1.0 1033:1.0 1991:1.0 
1.0 6:1.0 1527:1.0 
1.0 1328:1.0 1603:1.0 
1.0 771:1.0 2775:1.0 
1.0 331:1.0 1720:1.0 
0.7593036023975377 1464:1.0 2998:1.0 
1.0 1006:1.0 1684:1.0 
1.0 985:1.0 1679:1.0 
1.0 110:1.0 2004:1.0 
1.0 259:1.0 2718:1.0 
1.0 1027:1.0 1530:1.0 
1.0 358:1.0 1905:1.0 
1.0 295:1.0 2149:1.0 
1.0 1126:1.0 2487:1.0 
1.0 56:1.0 2027:1.0 
1.0 407:1.0 1503:1.0 
1.0 498:1.0 2957:1.0 
1.0 1467:1.0 2750:1.0 
1.0 687:1.0 2271:1.0 
1.0 1294:1.0 2150:1.0 
1.0 21:1.0 2402:1.0 
1.0 1207:1.0 2909:1.0 
1.0 431:1.0 2656:1.0 
0.910880358105369 876:1.0 2894:1.0 
1.0 1461:1.0 2735:1.0 
1.0 250:1.0 2307:1.0 
0.8888392240099663 1276:1.0 1908:1.0 
1.0 967:1.0 1608:1.0 
1.0 1416:1.0 2014:1.0 
1.0 765:1.0 2664:1.0 
1.0 309:1.0 2996:1.0 
1.0 835:1.0 2637:1.0 
0.5923486473295112 653:1.0 1826:1.0 
1.0 1396:1.0 1713:1.0 
1.0 1016:1.0 1619:1.0 
1.0 1195:1.0 2513:1.0 
1.0 1185:1.0 2216:1.0 
1.0 84:1.0 2669:1.0 
1.0 1222:1.0 1819:1.0 
1.0 1008:1.0 1922:1.0 
1.0 531:1.0 2839:1.0 
1.0 41:1.0 1803:1.0 
1.0 12:1.0 2874:1.0 
1.0 1176:1.0 1537:1.0 
1.0 53:1.0 2483:1.0 
1.0 1117:1.0 1598:1.0 
1.0 1395:1.0 1516:1.0 
1.0 113:1.0 2504:1.0 
0.17941907153984832 21:1.0 1888:1.0 
1.0 1474:1.0 1625:1.0 
1.0 851:1.0 2480:1.0 
1.0 754:1.0 2747:1.0 
0.1113613265433861 594:1.0 2172:1.0 
0.5549610161124401 983:1.0 2987:1.0 
1.0 881:1.0 1660:1.0 
1.0 533:1.0 2025:1.0 
1.0 929:1.0 1930:1.0 
1.0 957:1.0 2959:1.0 
1.0 738:1.0 1684:1.0 
1.0 317:1.0 2990:1.0 
1.0 304:1.0 1698:1.0 
1.0 1165:1.0 1667:1.0 
0.7906951850667168 26:1.0 2922:1.0 
0.2590254806803143 1424:1.0 1801:1.0 
1.0 129:1.0 1693:1.0 
1.0 1123:1.0 1660:1.0 
1.0 1224:1.0 2364:1.0 
1.0 60:1.0 1981:1.0 
1.0 1093:1.0 2330:1.0 
1.0 1342:1.0 1802:1.0 
1.0 1397:1.0 2434:1.0 
0.3896541257361734 318:1.0 2476:1.0 
1.0 1044:1.0 1761:1.0 
1.0 135:1.0 2344:1.0 
1.0 940:1.0 2391:1.0 
1.0 1327:1.0 2720:1.0 
1.0 1187:1.0 1809:1.0 
1.0 193:1.0 2420:1.0 
1.0 1254:1.0 2100:1.0 
1.0 463:1.0 2307:1.0 
1.0 722:1.0 1639:1.0 
0.9996038809261938 1491:1.0 1842:1.0 
1.0 1112:1.0 1847:1.0 
1.0 662:1.0 1761:1.0 
1.0 263:1.0 2475:1.0 
1.0 1426:1.0 2250:1.0 
1.0 718:1.0 1942:1.0 
1.0 205:1.0 2630:1.0 
1.0 280:1.0 1992:1.0 
0.2590921344006112 533:1.0 1681:1.0 
0.3887149639301087 198:1.0 2891:1.0 
1.0 920:1.0 2861:1.0 
1.0 1105:1.0 1515:1.0 
1.0 1473:1.0 1870:1.0 
1.0 258:1.0 1647:1.0 
1.0 812:1.0 2184:1.0 
1.0 977:1.0 2086:1.0 
1.0 1463:1.0 1926:1.0 
1.0 1212:1.0 1904:1.0 
1.0 9:1.0 1882:1.0 
1.0 1099:1.0 2982:1.0 
1.0 725:1.0 2510:1.0 
1.0 557:1.0 2481:1.0 
1.0 907:1.0 1714:1.0 
1.0 198:1.0 2910:1.0 
1.0 705:1.0 1885:1.0 
1.0 359:1.0 2853:1.0 
1.0 86:1.0 2661:1.0 
1.0 1300:1.0 2982:1.0 
1.0 94:1.0 2268:1.0 
1.0 1245:1.0 2029:1.0 
0.7556686913070688 1266:1.0 2820:1.0 
0.38908812324583625 519:1.0 2521:1.0 
0.7585534176945514 137:1.0 1557:1.0 
1.0 893:1.0 2910:1.0 
1.0 1202:1.0 2327:1.0 
1.0 135:1.0 1743:1.0 
1.0 10:1.0 2637:1.0 
1.0 1008:1.0 2316:1.0 
1.0 67:1.0 2460:1.0 
1.0 631:1.0 2765:1.0 
1.0 419:1.0 2323:1.0 
1.0 800:1.0 2775:1.0 
1.0 748:1.0 1536:1.0 
0.4768024021933957 980:1.0 1807:1.0 
1.0 1197:1.0 2841:1.0 
1.0 326:1.0 2122:1.0 
1.0 798:1.0 1502:1.0 
1.0 1287:1.0 1593:1.0 
1.0 1087:1.0 2993:1.0 
1.0 1365:1.0 2816:1.0 
1.0 600:1.0 1527:1.0 
1.0 67:1.0 2274:1.0 
1.0 824:1.0 1942:1.0 
1.0 1335:1.0 2528:1.0 
1.0 834:1.0 2888:1.0 
1.0 806:1.0 1998:1.0 
1.0 246:1.0 1869:1.0 
1.0 1077:1.0 2781:1.0 
1.0 252:1.0 1521:1.0 
1.0 684:1.0 2285:1.0 
1.0 311:1.0 2935:1.0 
1.0 926:1.0 1623:1.0 
1.0 1319:1.0 2864:1.0 
1.0 138:1.0 2202:1.0 
1.0 137:1.0 2632:1.0 
1.0 1270:1.0 2934:1.0 
1.0 598:1.0 2392:1.0 
1.0 334:1.0 2317:1.0 
1.0 587:1.0 2972:1.0 
1.0 742:1.0 2378:1.0 
1.0 357:1.0 1521:1.0 
1.0 281:1.0 2167:1.0 
1.0 126:1.0 1790:1.0 
1.0 107:1.0 1709:1.0 
1.0 813:1.0 1625:1.0 
1.0 1464:1.0 2270:1.0 
1.0 878:1.0 1939:1.0 
0.5114607493296124 827:1.0 1693:1.0 
1.0 515:1.0 1506:1.0 
1.0 596:1.0 2804:1.0 
1.0 1481:1.0 2636:1.0 
1.0 237:1.0 1657:1.0 
1.0 1141:1.0 2493:1.0 
0.744483960081673 540:1.0 2631:1.0 
1.0 741:1.0 2920:1.0 
1.0 551:1.0 2533:1.0 
0.5113528562911361 228:1.0 2496:1.0 
1.0 397:1.0 2392:1.0 
1.0 1000:1.0 2105:1.0 
1.0 1360:1.0 2089:1.0 
1.0 346:1.0 2505:1.0 
1.0 198:1.0 1796:1.0 
1.0 1034:1.0 2356:1.0 
1.0 672:1.0 2810:1.0 
1.0 407:1.0 1772:1.0 
1.0 301:1.0 1767:1.0 
1.0 340:1.0 2781:1.0 
1.0 734:1.0 2740:1.0 
1.0 1359:1.0 1792:1.0 
0.38873278798217825 340:1.0 1675:1.0 
1.0 333:1.0 1778:1.0 
1.0 1284:1.0 2551:1.0 
0.925911423527711 387:1.0 1524:1.0 
0.5108444010250334 311:1.0 2335:1.0 
1.0 458:1.0 2710:1.0 
1.0 811:1.0 1922:1.0 
1.0 1057:1.0 2439:1.0 
1.0 1412:1.0 2280:1.0 
1.0 1170:1.0 1820:1.0 
0.8888626833545664 1051:1.0 2227:1.0 
1.0 1343:1.0 2040:1.0 
1.0 427:1.0 2101:1.0 
1.0 794:1.0 2937:1.0 
0.5905293173459429 710:1.0 1647:1.0 
1.0 675:1.0 2640:1.0 
1.0 72:1.0 2551:1.0 
1.0 14:1.0 2052:1.0 
1.0 492:1.0 1915:1.0 
1.0 1169:1.0 2990:1.0 
1.0 971:1.0 2550:1.0 
1.0 525:1.0 1816:1.0 
1.0 313:1.0 1588:1.0 
1.0 362:1.0 2282:1.0 
1.0 740:1.0 1594:1.0 
1.0 890:1.0 2303:1.0 
1.0 1245:1.0 1867:1.0 
1.0 255:1.0 1900:1.0 
1.0 1235:1.0 2462:1.0 
1.0 999:1.0 2189:1.0 
1.0 584:1.0 2144:1.0 
1.0 1148:1.0 1594:1.0 
1.0 187:1.0 2479:1.0 
1.0 371:1.0 1535:1.0 
0.2588788947146615 700:1.0 1586:1.0 
1.0 257:1.0 2584:1.0 
1.0 47:1.0 2366:1.0 
1.0 1067:1.0 2475:1.0 
1.0 1190:1.0 2681:1.0 
1.0 186:1.0 2021:1.0 
1.0 565:1.0 2102:1.0 
0.8887216438102223 1471:1.0 2964:1.0 
1.0 992:1.0 2067:1.0 
1.0 1405:1.0 2495:1.0 
1.0 645:1.0 2236:1.0 
1.0 1299:1.0 2868:1.0 
1.0 1142:1.0 1766:1.0 
1.0 170:1.0 2382:1.0 
1.0 425:1.0 2298:1.0 
1.0 846:1.0 1943:1.0 
1.0 1216:1.0 2482:1.0 
1.0 1270:1.0 1857:1.0 
1.0 27:1.0 1940:1.0 
1.0 610:1.0 1731:1.0 
1.0 534:1.0 1744:1.0 
1.0 1376:1.0 2917:1.0 
1.0 1452:1.0 2735:1.0 
1.0 530:1.0 1769:1.0 
1.0 267:1.0 1657:1.0 
1.0 792:1.0 1919:1.0 
0.8888100746559525 1058:1.0 1944:1.0 
0.8888470903731869 1131:1.0 1750:1.0 
1.0 1060:1.0 2485:1.0 
1.0 406:1.0 1921:1.0 
1.0 279:1.0 1534:1.0 
1.0 503:1.0 2840:1.0 
1.0 356:1.0 2632:1.0 
1.0 1345:1.0 2104:1.0 
1.0 1239:1.0 1727:1.0 
1.0 1390:1.0 2607:1.0 
1.0 907:1.0 2537:1.0 
1.0 962:1.0 2100:1.0 
1.0 931:1.0 2823:1.0 
1.0 198:1.0 2963:1.0 
1.0 956:1.0 1799:1.0 
1.0 218:1.0 2138:1.0 
1.0 1303:1.0 2895:1.0 
1.0 894:1.0 2575:1.0 
1.0 1187:1.0 2430:1.0 
0.38881112070067836 382:1.0 2613:1.0 
1.0 1244:1.0 1999:1.0 
1.0 1446:1.0 2020:1.0 
1.0 1279:1.0 1745:1.0 
1.0 861:1.0 1997:1.0 
0.9257204634795428 788:1.0 1873:1.0 
1.0 217:1.0 2946:1.0 
0.8888096201326128 1112:1.0 2870:1.0 
1.0 817:1.0 1883:1.0 
1.0 1200:1.0 2760:1.0 
1.0 32:1.0 2645:1.0 
1.0 1385:1.0 2049:1.0 
1.0 159:1.0 2809:1.0 
1.0 38:1.0 2036:1.0 
1.0 452:1.0 2410:1.0 
1.0 1461:1.0 2862:1.0 
1.0 551:1.0 1658:1.0 
1.0 857:1.0 1628:1.0 
0.8889932524469523 241:1.0 2323:1.0 
1.0 1474:1.0 1923:1.0 
1.0 179:1.0 1523:1.0 
1.0 1180:1.0 1590:1.0 
1.0 776:1.0 1859:1.0 
1.0 312:1.0 2012:1.0 
1.0 568:1.0 2791:1.0 
0.8888035971984414 741:1.0 1659:1.0 
1.0 1423:1.0 1741:1.0 
1.0 1286:1.0 1541:1.0 
1.0 244:1.0 1918:1.0 
1.0 73:1.0 1678:1.0 
1.0 724:1.0 2805:1.0 
1.0 790:1.0 2162:1.0 
1.0 1194:1.0 1651:1.0 
1.0 1122:1.0 1996:1.0 
1.0 296:1.0 1944:1.0 
1.0 1479:1.0 2668:1.0 
1.0 160:1.0 2594:1.0 
1.0 45:1.0 2719:1.0 
0.8887942471074265 362:1.0 2161:1.0 
1.0 1127:1.0 2154:1.0 
1.0 1441:1.0 2363:1.0 
1.0 893:1.0 2893:1.0 
1.0 1291:1.0 2438:1.0 
0.4756659479006661 998:1.0 1979:1.0 
1.0 1438:1.0 2537:1.0 
1.0 491:1.0 1525:1.0 
1.0 553:1.0 2954:1.0 
1.0 294:1.0 1936:1.0 
1.0 1249:1.0 2962:1.0 
1.0 1157:1.0 1860:1.0 
1.0 165:1.0 1901:1.0 
1.0 667:1.0 2683:1.0 
1.0 259:1.0 1936:1.0 
1.0 644:1.0 1711:1.0 
1.0 1290:1.0 2844:1.0 
1.0 1280:1.0 1794:1.0 
1.0 1281:1.0 1500:1.0 
1.0 1241:1.0 2284:1.0 
1.0 1234:1.0 1774:1.0 
1.0 333:1.0 2253:1.0 
1.0 758:1.0 2521:1.0 
1.0 421:1.0 2797:1.0 
1.0 360:1.0 1648:1.0 
1.0 1137:1.0 2227:1.0 
0.7546804075712208 724:1.0 2830:1.0 
1.0 1234:1.0 2162:1.0 
1.0 788:1.0 2837:1.0 
1.0 61:1.0 2793:1.0 
1.0 171:1.0 2569:1.0 
1.0 416:1.0 2755:1.0 
1.0 766:1.0 2649:1.0 
1.0 57:1.0 2566:1.0 
0.888792264192504 450:1.0 2644:1.0 
1.0 5:1.0 1573:1.0 
1.0 1131:1.0 1931:1.0 
1.0 857:1.0 2425:1.0 
1.0 80:1.0 1955:1.0 
1.0 623:1.0 2952:1.0 
1.0 601:1.0 1596:1.0 
1.0 1115:1.0 2104:1.0 
1.0 482:1.0 1950:1.0 
1.0 50:1.0 2834:1.0 
1.0 1001:1.0 2045:1.0 
1.0 980:1.0 2075:1.0 
1.0 86:1.0 2295:1.0 
0.888554432103287 149:1.0 1667:1.0 
1.0 627:1.0 2138:1.0 
1.0 336:1.0 2725:1.0 
1.0 1310:1.0 2389:1.0 
1.0 480:1.0 1924:1.0 
1.0 671:1.0 2685:1.0 
1.0 724:1.0 2689:1.0 
1.0 818:1.0 2883:1.0 
1.0 982:1.0 2013:1.0 
0.8888154438981253 1139:1.0 2027:1.0 
1.0 1398:1.0 1988:1.0 
1.0 198:1.0 2561:1.0 
1.0 249:1.0 2030:1.0 
1.0 1073:1.0 1511:1.0 
0.8887740490086355 1060:1.0 1576:1.0 
1.0 1199:1.0 1644:1.0 
1.0 700:1.0 2724:1.0 
1.0 784:1.0 1616:1.0 
1.0 1257:1.0 2898:1.0 
0.7488054280914664 1215:1.0 1653:1.0 
1.0 263:1.0 2524:1.0 
1.0 983:1.0 2152:1.0 
1.0 379:1.0 2276:1.0 
1.0 227:1.0 1994:1.0 
1.0 1170:1.0 2522:1.0 
1.0 657:1.0 1958:1.0 
1.0 21:1.0 2886:1.0 
1.0 490:1.0 1905:1.0 
1.0 1014:1.0 1635:1.0 
1.0 274:1.0 2115:1.0 
1.0 943:1.0 2716:1.0 
1.0 1268:1.0 2248:1.0 
0.8885974294293609 1260:1.0 2085:1.0 
1.0 1491:1.0 2859:1.0 
1.0 821:1.0 1755:1.0 
1.0 1058:1.0 2286:1.0 
1.0 386:1.0 2512:1.0 
1.0 441:1.0 2832:1.0 
0.7653452956250901 1215:1.0 2906:1.0 
1.0 957:1.0 2002:1.0 
1.0 916:1.0 1753:1.0 
1.0 352:1.0 1733:1.0 
1.0 540:1.0 2119:1.0 
1.0 319:1.0 2527:1.0 
1.0 472:1.0 1853:1.0 
1.0 843:1.0 2769:1.0 
1.0 405:1.0 2038:1.0 
1.0 176:1.0 1874:1.0 
1.0 1145:1.0 2787:1.0 
1.0 1269:1.0 1974:1.0 
1.0 38:1.0 2176:1.0 
1.0 1266:1.0 2965:1.0 
1.0 1276:1.0 2292:1.0 
1.0 1116:1.0 2172:1.0 
1.0 390:1.0 2438:1.0 
1.0 736:1.0 1863:1.0 
1.0 301:1.0 2790:1.0 
1.0 287:1.0 2573:1.0 
1.0 1171:1.0 2982:1.0 
1.0 773:1.0 2769:1.0 
1.0 890:1.0 2394:1.0 
1.0 118:1.0 2028:1.0 
1.0 874:1.0 2225:1.0 
1.0 116:1.0 1566:1.0 
1.0 523:1.0 2014:1.0 
0.44439269052383434 927:1.0 2364:1.0 
1.0 1436:1.0 2562:1.0 
1.0 913:1.0 2521:1.0 
1.0 1238:1.0 1928:1.0 
1.0 1046:1.0 2241:1.0 
1.0 1118:1.0 1726:1.0 
1.0 715:1.0 2045:1.0 
1.0 107:1.0 1917:1.0 
1.0 629:1.0 2329:1.0 
1.0 1309:1.0 2199:1.0 
1.0 383:1.0 2600:1.0 
1.0 1138:1.0 2172:1.0 
1.0 768:1.0 2112:1.0 
1.0 757:1.0 2493:1.0 
1.0 314:1.0 2808:1.0 
1.0 149:1.0 2649:1.0 
1.0 1351:1.0 2316:1.0 
1.0 899:1.0 1722:1.0 
1.0 1247:1.0 2382:1.0 
1.0 326:1.0 2572:1.0 
1.0 75:1.0 2967:1.0 
0.9259446500242094 1442:1.0 2092:1.0 
1.0 83:1.0 2412:1.0 
0.31124846806663836 502:1.0 2924:1.0 
1.0 1430:1.0 2274:1.0 
1.0 586:1.0 2387:1.0 
0.888790775280058 1052:1.0 2448:1.0 
1.0 806:1.0 1686:1.0 
1.0 1424:1.0 2910:1.0 
1.0 884:1.0 2037:1.0 
1.0 1087:1.0 2978:1.0 
0.7560645634744394 777:1.0 2159:1.0 
1.0 802:1.0 2810:1.0 
0.2590309913181019 61:1.0 2190:1.0 
0.9112090205046772 1324:1.0 2552:1.0 
0.5106897160077313 258:1.0 1614:1.0 
1.0 1244:1.0 2759:1.0 
0.8887361109587303 1124:1.0 2501:1.0 
1.0 1458:1.0 2678:1.0 
1.0 191:1.0 1668:1.0 
0.8887275007672345 527:1.0 2357:1.0 
1.0 217:1.0 1572:1.0 
1.0 250:1.0 2424:1.0 
1.0 250:1.0 2920:1.0 
1.0 1244:1.0 2719:1.0 
1.0 1162:1.0 2455:1.0 
1.0 150:1.0 2160:1.0 
1.0 304:1.0 2547:1.0 
0.8888230190764257 1343:1.0 1562:1.0 
1.0 1032:1.0 2058:1.0 
1.0 1448:1.0 2894:1.0 
1.0 1095:1.0 1571:1.0 
1.0 1433:1.0 2362:1.0 
1.0 50:1.0 1677:1.0 
1.0 816:1.0 2259:1.0 
0.7217426397792752 805:1.0 2953:1.0 
1.0 1398:1.0 2412:1.0 
1.0 821:1.0 1528:1.0 
1.0 1443:1.0 2341:1.0 
1.0 504:1.0 2047:1.0 
1.0 712:1.0 2141:1.0 
1.0 321:1.0 2767:1.0 
1.0 913:1.0 2975:1.0 
0.7907145867459735 26:1.0 2816:1.0 
1.0 235:1.0 1602:1.0 
1.0 269:1.0 2906:1.0 
1.0 535:1.0 2949:1.0 
0.8886978857701914 153:1.0 1763:1.0 
1.0 834:1.0 2867:1.0 
1.0 1210:1.0 1895:1.0 
1.0 74:1.0 2140:1.0 
1.0 163:1.0 1680:1.0 
0.5104183222743377 555:1.0 2606:1.0 
1.0 1436:1.0 2995:1.0 
1.0 649:1.0 2350:1.0 
1.0 693:1.0 1624:1.0 
0.15507349190531233 1362:1.0 2924:1.0 
1.0 698:1.0 2553:1.0 
1.0 1039:1.0 2638:1.0 
1.0 998:1.0 2154:1.0 
0.7562438737082151 555:1.0 2830:1.0 
1.0 738:1.0 1897:1.0 
1.0 353:1.0 1903:1.0 
1.0 1009:1.0 1574:1.0 
1.0 1030:1.0 2190:1.0 
1.0 974:1.0 1516:1.0 
1.0 355:1.0 2929:1.0 
1.0 846:1.0 2381:1.0 
1.0 504:1.0 2976:1.0 
1.0 75:1.0 2640:1.0 
1.0 1326:1.0 2566:1.0 
1.0 1118:1.0 2539:1.0 
0.8888403565018477 1287:1.0 2702:1.0 
1.0 417:1.0 2029:1.0 
0.5252888890874677 267:1.0 2002:1.0 
1.0 23:1.0 1614:1.0 
1.0 500:1.0 2263:1.0 
1.0 674:1.0 2118:1.0 
1.0 483:1.0 2284:1.0 
1.0 269:1.0 2083:1.0 
0.88873291015625 1495:1.0 1725:1.0 
1.0 1034:1.0 2324:1.0 
1.0 1114:1.0 2143:1.0 
1.0 1354:1.0 2782:1.0 
1.0 1330:1.0 2901:1.0 
1.0 1053:1.0 2836:1.0 
1.0 906:1.0 1932:1.0 
1.0 566:1.0 1560:1.0 
1.0 1158:1.0 1786:1.0 
1.0 1072:1.0 1766:1.0 
1.0 197:1.0 2607:1.0 
1.0 228:1.0 2576:1.0 
1.0 1328:1.0 1526:1.0 
1.0 900:1.0 2347:1.0 
1.0 879:1.0 2666:1.0 
1.0 1035:1.0 2427:1.0 
1.0 1138:1.0 2211:1.0 
1.0 1083:1.0 1545:1.0 
1.0 366:1.0 2399:1.0 
1.0 1369:1.0 2472:1.0 
1.0 1216:1.0 2099:1.0 
1.0 760:1.0 1675:1.0 
1.0 997:1.0 2524:1.0 
1.0 659:1.0 2655:1.0 
1.0 328:1.0 2843:1.0 
1.0 1260:1.0 2077:1.0 
1.0 1112:1.0 1778:1.0 
1.0 814:1.0 2718:1.0 
1.0 528:1.0 2743:1.0 
1.0 55:1.0 2241:1.0 
1.0 457:1.0 2592:1.0 
1.0 164:1.0 2049:1.0 
1.0 292:1.0 1837:1.0 
0.8886619501333777 652:1.0 2185:1.0 
1.0 772:1.0 2696:1.0 
1.0 97:1.0 2979:1.0 
1.0 579:1.0 1692:1.0 
1.0 1382:1.0 2625:1.0 
1.0 157:1.0 2751:1.0 
1.0 78:1.0 2782:1.0 
1.0 536:1.0 2900:1.0 
1.0 459:1.0 2868:1.0 
1.0 145:1.0 2230:1.0 
1.0 1366:1.0 1818:1.0 
1.0 234:1.0 2299:1.0 
1.0 1424:1.0 1894:1.0 
1.0 732:1.0 2631:1.0 
1.0 1467:1.0 1715:1.0 
1.0 966:1.0 1872:1.0 
1.0 773:1.0 1979:1.0 
1.0 1225:1.0 2960:1.0 
1.0 598:1.0 2564:1.0 
1.0 8:1.0 1823:1.0 
1.0 1421:1.0 2073:1.0 
1.0 1430:1.0 1925:1.0 
1.0 358:1.0 1734:1.0 
1.0 176:1.0 2176:1.0 
0.42614975604276717 169:1.0 2755:1.0 
1.0 1403:1.0 2695:1.0 
1.0 657:1.0 2626:1.0 
0.8887939294556432 950:1.0 1950:1.0 
1.0 49:1.0 2097:1.0 
1.0 1056:1.0 2110:1.0 
1.0 173:1.0 1705:1.0 
1.0 589:1.0 2720:1.0 
1.0 148:1.0 2310:1.0 
1.0 1165:1.0 2165:1.0 
1.0 903:1.0 1900:1.0 
1.0 594:1.0 2331:1.0 
1.0 16:1.0 1969:1.0 
1.0 1298:1.0 1948:1.0 
1.0 1253:1.0 2995:1.0 
0.9257674651374239 898:1.0 2010:1.0 
1.0 1444:1.0 2803:1.0 
1.0 266:1.0 2897:1.0 
1.0 988:1.0 1608:1.0 
0.01640014335882134 1194:1.0 2631:1.0 
1.0 166:1.0 2402:1.0 
1.0 1292:1.0 2501:1.0 
0.8887881848623875 1040:1.0 1596:1.0 
0.9257913862553191 959:1.0 2261:1.0 
1.0 1216:1.0 1750:1.0 
1.0 1258:1.0 2227:1.0 
1.0 235:1.0 2791:1.0 
1.0 1192:1.0 2717:1.0 
1.0 658:1.0 1627:1.0 
1.0 1418:1.0 2085:1.0 
1.0 1265:1.0 2534:1.0 
1.0 360:1.0 2541:1.0 
1.0 743:1.0 2092:1.0 
1.0 1266:1.0 1532:1.0 
0.38916695254736683 1491:1.0 2455:1.0 
1.0 1255:1.0 2377:1.0 
1.0 1234:1.0 1775:1.0 
0.3888583600746848 972:1.0 2838:1.0 
1.0 231:1.0 2914:1.0 
1.0 733:1.0 2069:1.0 
1.0 1181:1.0 2703:1.0 
1.0 1468:1.0 2075:1.0 
1.0 373:1.0 2062:1.0 
1.0 329:1.0 1858:1.0 
1.0 1126:1.0 1541:1.0 
1.0 449:1.0 2502:1.0 
1.0 1262:1.0 1808:1.0 
1.0 868:1.0 2122:1.0 
1.0 1065:1.0 1812:1.0 
1.0 857:1.0 2967:1.0 
1.0 656:1.0 1704:1.0 
1.0 1488:1.0 1956:1.0 
1.0 36:1.0 2293:1.0 
1.0 514:1.0 1716:1.0 
1.0 832:1.0 2534:1.0 
1.0 1191:1.0 1530:1.0 
1.0 37:1.0 1826:1.0 
1.0 280:1.0 2620:1.0 
1.0 786:1.0 1799:1.0 
1.0 1449:1.0 2264:1.0 
1.0 398:1.0 1743:1.0 
1.0 1431:1.0 2252:1.0 
1.0 52:1.0 2083:1.0 
1.0 1083:1.0 2354:1.0 
1.0 1154:1.0 2984:1.0 
0.11100947127616098 186:1.0 2620:1.0 
1.0 424:1.0 1557:1.0 
1.0 531:1.0 2453:1.0 
1.0 515:1.0 2814:1.0 
1.0 1313:1.0 2502:1.0 
0.9113999303298514 1033:1.0 2552:1.0 
1.0 470:1.0 2568:1.0 
1.0 696:1.0 2179:1.0 
1.0 991:1.0 2202:1.0 
1.0 597:1.0 1878:1.0 
1.0 1425:1.0 2596:1.0 
1.0 984:1.0 2448:1.0 
1.0 793:1.0 1991:1.0 
1.0 181:1.0 2145:1.0 
0.8888270590762318 379:1.0 2990:1.0 
1.0 524:1.0 1824:1.0 
1.0 1405:1.0 2675:1.0 
1.0 720:1.0 2663:1.0 
0.3888441377416224 889:1.0 1673:1.0 
0.1194044311287806 691:1.0 1888:1.0 
1.0 57:1.0 2300:1.0 
1.0 416:1.0 1690:1.0 
1.0 777:1.0 2164:1.0 
0.4057720526817457 26:1.0 2525:1.0 
1.0 895:1.0 2224:1.0 
1.0 54:1.0 1693:1.0 
0.8886247784043403 246:1.0 2347:1.0 
0.07815105450967774 1185:1.0 1832:1.0 
1.0 478:1.0 2093:1.0 
1.0 832:1.0 1980:1.0 
1.0 409:1.0 1547:1.0 
1.0 79:1.0 2113:1.0 
1.0 622:1.0 2656:1.0 
0.6390552602862907 1198:1.0 1572:1.0 
1.0 851:1.0 1892:1.0 
1.0 689:1.0 2048:1.0 
1.0 1288:1.0 2046:1.0 
1.0 17:1.0 2928:1.0 
1.0 1314:1.0 2407:1.0 
1.0 764:1.0 2671:1.0 
0.13920690994576143 1234:1.0 1625:1.0 
1.0 1197:1.0 2428:1.0 
1.0 1235:1.0 2821:1.0 
1.0 630:1.0 2351:1.0 
1.0 78:1.0 1677:1.0 
0.8449260341797674 265:1.0 2917:1.0 
1.0 1465:1.0 1881:1.0 
0.9260340321754529 14:1.0 1539:1.0 
1.0 1047:1.0 1666:1.0 
1.0 571:1.0 2433:1.0 
1.0 745:1.0 1946:1.0 
1.0 48:1.0 2059:1.0 
1.0 709:1.0 2471:1.0 
1.0 950:1.0 2110:1.0 
1.0 859:1.0 2893:1.0 
1.0 715:1.0 1595:1.0 
1.0 140:1.0 2754:1.0 
1.0 968:1.0 2202:1.0 
1.0 1111:1.0 1630:1.0 
1.0 578:1.0 1518:1.0 
1.0 613:1.0 2890:1.0 
1.0 862:1.0 1585:1.0 
1.0 664:1.0 2943:1.0 
1.0 106:1.0 2432:1.0 
1.0 1280:1.0 2151:1.0 
1.0 1074:1.0 2803:1.0 
1.0 978:1.0 2696:1.0 
1.0 194:1.0 2002:1.0 
1.0 947:1.0 1740:1.0 
1.0 540:1.0 2830:1.0 
1.0 507:1.0 2681:1.0 
1.0 1221:1.0 2893:1.0 
1.0 305:1.0 1832:1.0 
1.0 247:1.0 2248:1.0 
0.8886883113456228 448:1.0 1909:1.0 
1.0 529:1.0 2104:1.0 
1.0 100:1.0 1555:1.0 
1.0 112:1.0 2809:1.0 
0.38869902796567746 256:1.0 2346:1.0 
1.0 381:1.0 2658:1.0 
1.0 1094:1.0 2669:1.0 
1.0 133:1.0 2597:1.0 
1.0 577:1.0 2676:1.0 
1.0 688:1.0 1566:1.0 
1.0 620:1.0 2081:1.0 
1.0 43:1.0 2618:1.0 
1.0 31:1.0 2912:1.0 
1.0 352:1.0 1536:1.0 
1.0 1109:1.0 1703:1.0 
1.0 50:1.0 2641:1.0 
1.0 1039:1.0 1967:1.0 
1.0 1225:1.0 2108:1.0 
1.0 729:1.0 2009:1.0 
0.9257364330180053 833:1.0 1794:1.0 
1.0 318:1.0 2654:1.0 
1.0 426:1.0 2196:1.0 
1.0 1363:1.0 2030:1.0 
1.0 1228:1.0 2075:1.0 
1.0 151:1.0 2838:1.0 
1.0 1205:1.0 2667:1.0 
1.0 1:1.0 2768:1.0 
1.0 368:1.0 2842:1.0 
1.0 1035:1.0 2803:1.0 
1.0 1059:1.0 2676:1.0 
1.0 680:1.0 1578:1.0 
1.0 1103:1.0 2767:1.0 
1.0 1378:1.0 2940:1.0 
0.2592369796173133 46:1.0 1681:1.0 
1.0 611:1.0 2903:1.0 
1.0 31:1.0 2591:1.0 
1.0 423:1.0 2964:1.0 
1.0 556:1.0 2438:1.0 
1.0 649:1.0 3000:1.0 
1.0 1444:1.0 2668:1.0 
1.0 920:1.0 2268:1.0 
1.0 831:1.0 1801:1.0 
1.0 989:1.0 2089:1.0 
1.0 245:1.0 2276:1.0 
1.0 864:1.0 2823:1.0 
1.0 301:1.0 2280:1.0 
1.0 366:1.0 2643:1.0 
1.0 365:1.0 2078:1.0 
1.0 632:1.0 2091:1.0 
1.0 287:1.0 2629:1.0 
1.0 8:1.0 1551:1.0 
0.7549725618239098 827:1.0 2159:1.0 
1.0 1340:1.0 1662:1.0 
0.8887341745729617 857:1.0 2698:1.0 
1.0 356:1.0 2217:1.0 
1.0 185:1.0 2629:1.0 
1.0 841:1.0 1716:1.0 
0.88883529447057 1225:1.0 2810:1.0 
1.0 1453:1.0 2169:1.0 
1.0 1109:1.0 2310:1.0 
1.0 1242:1.0 2437:1.0 
1.0 469:1.0 2529:1.0 
1.0 1022:1.0 2686:1.0 
1.0 481:1.0 2757:1.0 
1.0 1051:1.0 2374:1.0 
1.0 1160:1.0 2490:1.0 
1.0 112:1.0 1700:1.0 
0.8887282434881472 1250:1.0 2670:1.0 
1.0 55:1.0 2164:1.0 
1.0 685:1.0 1792:1.0 
1.0 1476:1.0 1756:1.0 
1.0 1178:1.0 1747:1.0 
1.0 134:1.0 1857:1.0 
1.0 578:1.0 1973:1.0 
1.0 1052:1.0 2317:1.0 
1.0 56:1.0 2422:1.0 
1.0 1465:1.0 2539:1.0 
1.0 674:1.0 2745:1.0 
1.0 510:1.0 2245:1.0 
1.0 1:1.0 2703:1.0 
1.0 189:1.0 2484:1.0 
1.0 713:1.0 2772:1.0 
1.0 799:1.0 2193:1.0 
0.8888936040667454 1228:1.0 2260:1.0 
1.0 1271:1.0 2940:1.0 
1.0 551:1.0 2872:1.0 
1.0 220:1.0 1672:1.0 
1.0 1183:1.0 1793:1.0 
1.0 69:1.0 2158:1.0 
1.0 1382:1.0 1947:1.0 
1.0 153:1.0 2737:1.0 
1.0 958:1.0 1888:1.0 
1.0 312:1.0 2089:1.0 
1.0 1109:1.0 2686:1.0 
1.0 256:1.0 1966:1.0 
1.0 1244:1.0 2138:1.0 
1.0 437:1.0 2924:1.0 
1.0 1495:1.0 2579:1.0 
1.0 1028:1.0 2855:1.0 
0.6390821370465837 613:1.0 1932:1.0 
1.0 1010:1.0 1797:1.0 
1.0 1009:1.0 2205:1.0 
1.0 476:1.0 1694:1.0 
1.0 241:1.0 2076:1.0 
1.0 505:1.0 2259:1.0 
1.0 1131:1.0 2630:1.0 
1.0 701:1.0 1691:1.0 
1.0 1457:1.0 2590:1.0 
1.0 349:1.0 2975:1.0 
1.0 1378:1.0 2126:1.0 
0.9258340784143936 825:1.0 2004:1.0 
1.0 569:1.0 2195:1.0 
1.0 801:1.0 2752:1.0 
1.0 336:1.0 1854:1.0 
1.0 377:1.0 2362:1.0 
1.0 1449:1.0 2924:1.0 
1.0 1092:1.0 2114:1.0 
1.0 649:1.0 1504:1.0 
1.0 1299:1.0 1832:1.0 
1.0 1132:1.0 1537:1.0 
1.0 1348:1.0 2072:1.0 
1.0 11:1.0 2141:1.0 
1.0 1319:1.0 1638:1.0 
1.0 1209:1.0 1871:1.0 
1.0 768:1.0 2088:1.0 
1.0 82:1.0 2187:1.0 
1.0 1478:1.0 1637:1.0 
1.0 1096:1.0 2153:1.0 
1.0 726:1.0 2487:1.0 
1.0 583:1.0 2395:1.0 
1.0 1364:1.0 2642:1.0 
1.0 469:1.0 1807:1.0 
1.0 1369:1.0 2979:1.0 
1.0 1476:1.0 2597:1.0 
1.0 1134:1.0 1868:1.0 
1.0 325:1.0 2375:1.0 
0.9261025110711896 336:1.0 1924:1.0 
1.0 875:1.0 1766:1.0 
1.0 744:1.0 2277:1.0 
0.9107212817506116 201:1.0 2894:1.0 
1.0 475:1.0 2471:1.0 
1.0 1216:1.0 2674:1.0 
1.0 430:1.0 2998:1.0 
1.0 837:1.0 2019:1.0 
0.8663694748092094 399:1.0 1853:1.0 
1.0 700:1.0 2499:1.0 
1.0 161:1.0 1519:1.0 
0.3108991023291693 423:1.0 2280:1.0 
0.25938950543310624 1286:1.0 2710:1.0 
1.0 554:1.0 2949:1.0 
1.0 737:1.0 1718:1.0 
1.0 292:1.0 2986:1.0 
1.0 514:1.0 1513:1.0 
1.0 500:1.0 2383:1.0 
0.3888154881976535 1457:1.0 1545:1.0 
1.0 17:1.0 1637:1.0 
1.0 547:1.0 1824:1.0 
1.0 879:1.0 2429:1.0 
1.0 960:1.0 2611:1.0 
0.6389600722926319 1446:1.0 2515:1.0 
0.8888217786294379 1089:1.0 2939:1.0 
1.0 860:1.0 2825:1.0 
1.0 1240:1.0 2067:1.0 
1.0 1362:1.0 1548:1.0 
1.0 1136:1.0 1970:1.0 
1.0 739:1.0 1789:1.0 
1.0 865:1.0 1605:1.0 
1.0 1151:1.0 1993:1.0 
1.0 265:1.0 2290:1.0 
1.0 219:1.0 2683:1.0 
1.0 1019:1.0 2699:1.0 
0.8889772929530535 937:1.0 2799:1.0 
1.0 1254:1.0 2804:1.0 
1.0 762:1.0 2109:1.0 
0.9996998518656915 1288:1.0 2521:1.0 
0.04493780172346937 806:1.0 1853:1.0 
1.0 796:1.0 1960:1.0 
1.0 1316:1.0 2377:1.0 
1.0 363:1.0 1897:1.0 
1.0 281:1.0 2734:1.0 
1.0 1259:1.0 1898:1.0 
1.0 829:1.0 2936:1.0 
1.0 1333:1.0 2838:1.0 
1.0 1132:1.0 1507:1.0 
1.0 1471:1.0 2975:1.0 
1.0 346:1.0 1529:1.0 
1.0 167:1.0 2248:1.0 
1.0 1231:1.0 2222:1.0 
1.0 374:1.0 2216:1.0 
1.0 717:1.0 2928:1.0 
1.0 1119:1.0 2773:1.0 
1.0 1180:1.0 2113:1.0 
1.0 1424:1.0 2381:1.0 
1.0 485:1.0 2576:1.0 
1.0 1452:1.0 1541:1.0 
1.0 295:1.0 2022:1.0 
1.0 184:1.0 1572:1.0 
1.0 1305:1.0 2015:1.0 
1.0 1107:1.0 2883:1.0 
1.0 1091:1.0 2134:1.0 
1.0 1253:1.0 2080:1.0 
1.0 776:1.0 1741:1.0 
1.0 360:1.0 2540:1.0 
1.0 1123:1.0 2757:1.0 
1.0 1140:1.0 2288:1.0 
1.0 1062:1.0 1991:1.0 
1.0 1396:1.0 2406:1.0 
1.0 1326:1.0 2322:1.0 
0.5935310706524601 713:1.0 2745:1.0 
1.0 648:1.0 2056:1.0 
0.8886754371996657 400:1.0 1617:1.0 
1.0 728:1.0 1980:1.0 
1.0 387:1.0 1875:1.0 
1.0 1032:1.0 2496:1.0 
1.0 1358:1.0 2476:1.0 
1.0 477:1.0 1955:1.0 
1.0 1397:1.0 2684:1.0 
1.0 927:1.0 1838:1.0 
1.0 1198:1.0 2547:1.0 
1.0 486:1.0 2364:1.0 
0.926112215364663 566:1.0 2261:1.0 
0.05591911022904272 360:1.0 2205:1.0 
1.0 980:1.0 2506:1.0 
1.0 1274:1.0 2545:1.0 
1.0 1365:1.0 2790:1.0 
1.0 1271:1.0 2382:1.0 
1.0 5:1.0 2381:1.0 
1.0 41:1.0 1553:1.0 
0.592718872339791 735:1.0 1839:1.0 
0.4443127527362138 1195:1.0 2179:1.0 
1.0 898:1.0 2608:1.0 
1.0 886:1.0 2102:1.0 
1.0 189:1.0 2013:1.0 
1.0 1073:1.0 2056:1.0 
1.0 1189:1.0 2914:1.0 
1.0 508:1.0 2619:1.0 
1.0 781:1.0 2716:1.0 
1.0 250:1.0 2609:1.0 
1.0 720:1.0 2034:1.0 
1.0 1046:1.0 2946:1.0 
1.0 1070:1.0 2391:1.0 
1.0 1071:1.0 1531:1.0 
1.0 1444:1.0 1938:1.0 
1.0 1352:1.0 1652:1.0 
0.49066985741335245 868:1.0 1769:1.0 
1.0 543:1.0 2300:1.0 
1.0 268:1.0 2944:1.0 
1.0 1337:1.0 2451:1.0 
1.0 1033:1.0 1894:1.0 
1.0 1246:1.0 2196:1.0 
1.0 921:1.0 1732:1.0 
-0.28890456957534194 109:1.0 1692:1.0 
-1.0 2533:1.0 2914:1.0 
-1.0 1243:1.0 1596:1.0 
-5.883019554882296E-4 1359:1.0 2911:1.0 
-0.8608942790861487 1766:1.0 2744:1.0 
-1.0 15:1.0 2067:1.0 
-0.2091326133004622 1704:1.0 2050:1.0 
-0.9736320293240782 575:1.0 1530:1.0 
-0.4072544995895305 2427:1.0 2469:1.0 
-0.407650826514921 1708:1.0 2470:1.0 
-0.20667743973683234 183:1.0 347:1.0 
-0.1899532975925175 504:1.0 1858:1.0 
-0.11114085085673311 1846:1.0 2380:1.0 
-0.1111721197412455 1820:1.0 2353:1.0 
-0.11229358232383282 547:1.0 1021:1.0 
-1.0 172:1.0 1427:1.0 
-1.0 1694:1.0 2274:1.0 
-0.08935690364993071 1501:1.0 2935:1.0 
-0.42420131908258313 600:1.0 867:1.0 
-0.1111960548731244 1512:1.0 2022:1.0 
-1.0 1792:1.0 2623:1.0 
-0.11118886132769051 578:1.0 2634:1.0 
-1.0 421:1.0 1253:1.0 
-0.8122801760491691 1431:1.0 1999:1.0 
-1.0 1646:1.0 2910:1.0 
-1.0 89:1.0 135:1.0 
-0.3523651673206918 2854:1.0 2934:1.0 
-0.07395820413959034 141:1.0 2131:1.0 
-0.07419161413661468 1227:1.0 2398:1.0 
-0.2430097801772124 2015:1.0 2587:1.0 
-1.0 1868:1.0 2248:1.0 
-0.11115538255106128 975:1.0 1401:1.0 
-0.043868774171876096 1489:1.0 1811:1.0 
-0.05565253038463647 795:1.0 1066:1.0 
-0.40762723245805155 237:1.0 1398:1.0 
-0.741143044138924 774:1.0 1286:1.0 
-1.0 2381:1.0 2573:1.0 
-0.48922118433793876 213:1.0 1132:1.0 
-0.366724296140479 1810:1.0 2201:1.0 
-0.7406997598816946 956:1.0 1298:1.0 
-0.11118869451379901 229:1.0 746:1.0 
-0.07390280280331782 2014:1.0 2459:1.0 
-0.40929004795551155 2959:1.0 2986:1.0 
-0.4081294901381188 151:1.0 877:1.0 
-0.13313053888283571 231:1.0 1022:1.0 
-0.3589176091594141 101:1.0 2472:1.0 
-1.0 799:1.0 1095:1.0 
-1.0 1753:1.0 2998:1.0 
-1.0 551:1.0 946:1.0 
-0.24459045173914148 2759:1.0 2764:1.0 
-0.2397551847738171 1125:1.0 1384:1.0 
-1.0 884:1.0 2670:1.0 
-0.38153880028988774 538:1.0 2921:1.0 
-0.0825433908609936 438:1.0 2797:1.0 
-0.5227805236965866 1534:1.0 1646:1.0 
-0.4072337352434665 679:1.0 2151:1.0 
-1.0 640:1.0 1516:1.0 
-0.8609262335394874 649:1.0 1410:1.0 
-0.3053717385997996 2502:1.0 2605:1.0 
-0.0451898300185527 933:1.0 2762:1.0 
-0.11122084046371286 1108:1.0 2559:1.0 
-0.4074080504578464 1247:1.0 1876:1.0 
-0.05565253038463647 537:1.0 795:1.0 
-1.0 157:1.0 913:1.0 
-1.0 1491:1.0 1760:1.0 
-0.9990052138880339 416:1.0 907:1.0 
-0.01157848796928812 976:1.0 2441:1.0 
-0.45914651048701094 1432:1.0 1526:1.0 
-0.6112701593693556 1852:1.0 2724:1.0 
-1.0 2202:1.0 2924:1.0 
-1.0 1947:1.0 2940:1.0 
-0.08922259242818739 2230:1.0 2918:1.0 
-0.11132029181327668 359:1.0 1231:1.0 
-1.0 1905:1.0 2089:1.0 
-1.0 193:1.0 2696:1.0 
-0.2448268689382844 1566:1.0 2827:1.0 
-0.5146837332113033 521:1.0 816:1.0 
-0.4892522312341228 847:1.0 2689:1.0 
-0.11113633387727923 131:1.0 1592:1.0 
-0.8873260159233787 1010:1.0 1485:1.0 
-0.04515146746247309 453:1.0 1246:1.0 
-1.0 1675:1.0 2576:1.0 
-0.11129722119875218 2202:1.0 2544:1.0 
-1.0 301:1.0 1162:1.0 
-1.0 921:1.0 2597:1.0 
-0.9983097738910138 470:1.0 756:1.0 
-1.0 418:1.0 450:1.0 
-1.0 346:1.0 356:1.0 
-0.10628643653556799 811:1.0 2198:1.0 
-0.20608680530852466 457:1.0 702:1.0 
-0.6112679079037474 662:1.0 2507:1.0 
-1.0 142:1.0 189:1.0 
-0.11123672362554482 449:1.0 1303:1.0 
-1.0 1423:1.0 2100:1.0 
-0.39905196304779367 2714:1.0 2904:1.0 
-0.055636052894473376 23:1.0 795:1.0 
-0.11151289449102467 369:1.0 2919:1.0 
-0.05530028300219722 1728:1.0 2332:1.0 
-1.0 2202:1.0 2430:1.0 
-1.0 967:1.0 2049:1.0 
-1.0 849:1.0 2576:1.0 
-0.4073341358025965 1290:1.0 2174:1.0 
-1.0 629:1.0 1033:1.0 
-0.6112068415456751 1217:1.0 1240:1.0 
-0.6113791835712032 569:1.0 1456:1.0 
-1.0 1057:1.0 1667:1.0 
-0.407318204705973 1166:1.0 1336:1.0 
-0.11129479428011338 271:1.0 2044:1.0 
-1.0 545:1.0 2241:1.0 
-0.11128720734631023 1357:1.0 1640:1.0 
-0.28863856624775974 55:1.0 786:1.0 
-0.11106741684330265 2802:1.0 2930:1.0 
-0.014974815448581064 1146:1.0 2350:1.0 
-0.4034926201630127 151:1.0 1945:1.0 
-0.28871363338055706 1985:1.0 2550:1.0 
-0.4075933858343793 2241:1.0 2789:1.0 
-1.0 931:1.0 1274:1.0 
-1.0 852:1.0 2357:1.0 
-0.1865362715727791 1059:1.0 2134:1.0 
-0.2508910138212356 2015:1.0 2754:1.0 
-0.2440137961280768 2584:1.0 2933:1.0 
-0.11071268455952532 1655:1.0 2071:1.0 
-0.21100139443953503 2522:1.0 2649:1.0 
-0.24274254511371138 680:1.0 2304:1.0 
-0.6116203439068736 1143:1.0 1961:1.0 
-0.17364332325264167 181:1.0 677:1.0 
-0.5557204786597183 1925:1.0 2414:1.0 
-0.68951247131572 208:1.0 2629:1.0 
-0.1759401405677492 2238:1.0 2597:1.0 
-0.4844580238755599 1923:1.0 2940:1.0 
-0.44396970985316064 1868:1.0 2952:1.0 
-0.4076498477467142 2056:1.0 2884:1.0 
-0.07390330728639588 1312:1.0 2623:1.0 
-0.7779253656392672 532:1.0 2059:1.0 
-0.3610007131243974 28:1.0 1878:1.0 
-0.11517059846763761 2187:1.0 2479:1.0 
-1.0 170:1.0 1361:1.0 
-0.7551613930479175 119:1.0 2944:1.0 
-1.0 2027:1.0 2454:1.0 
-0.611114004274487 583:1.0 1128:1.0 
-0.09851955627581446 383:1.0 1150:1.0 
-0.055818958024119764 84:1.0 2332:1.0 
-0.11135656387830295 539:1.0 714:1.0 
-1.0 249:1.0 313:1.0 
-0.6113251168629319 1476:1.0 2181:1.0 
-1.0 106:1.0 1255:1.0 
-0.9562261279980464 1322:1.0 2552:1.0 
-0.0017543063045836471 1437:1.0 2542:1.0 
-0.6112079982271552 2577:1.0 2608:1.0 
-1.0 1299:1.0 1617:1.0 
-0.11121242926778588 1743:1.0 2598:1.0 
-0.07393486420809098 656:1.0 1019:1.0 
-0.07408521586281644 696:1.0 1080:1.0 
-0.6429136650343172 2653:1.0 2972:1.0 
-0.5009409212899222 2083:1.0 2609:1.0 
-0.5555602342633457 891:1.0 1925:1.0 
-0.49953178957176914 2183:1.0 2534:1.0 
-0.6112037832901379 42:1.0 185:1.0 
-1.0 1039:1.0 1245:1.0 
-0.26290303384648567 377:1.0 1125:1.0 
-1.0 1050:1.0 1109:1.0 
-0.5643110285432243 2155:1.0 2797:1.0 
-1.0 1793:1.0 1960:1.0 
-0.3610544526426028 1443:1.0 2158:1.0 
-0.11115964349815241 1199:1.0 2600:1.0 
-0.11118994873878402 479:1.0 574:1.0 
-1.0 166:1.0 1401:1.0 
-0.1111599908036307 1866:1.0 1916:1.0 
-0.08863016054125333 274:1.0 809:1.0 
-1.0 423:1.0 1154:1.0 
-0.9551034080879268 94:1.0 546:1.0 
-0.40721115954201376 1063:1.0 2279:1.0 
-0.07423153280569408 1821:1.0 2459:1.0 
-0.48925168078474074 119:1.0 925:1.0 
-0.07410560143448572 2313:1.0 2860:1.0 
-1.0 2406:1.0 2767:1.0 
-0.07424283008362706 322:1.0 371:1.0 
-0.8125329065608693 1129:1.0 2196:1.0 
-1.0 674:1.0 908:1.0 
-0.3056244142861771 1834:1.0 2176:1.0 
-1.0 1743:1.0 2282:1.0 
-1.0 2749:1.0 2990:1.0 
-0.11007214356958017 2430:1.0 2739:1.0 
-0.6118699352795893 1189:1.0 2048:1.0 
-0.4366091995955611 128:1.0 2091:1.0 
-0.2355084431623537 2148:1.0 2369:1.0 
-0.40767402930754915 2098:1.0 2138:1.0 
-0.11118843874301085 1777:1.0 2863:1.0 
-0.2884333352769154 257:1.0 1170:1.0 
-0.12652923163939836 509:1.0 1012:1.0 
-0.15488475361844756 423:1.0 1933:1.0 
-0.35588481622047496 1692:1.0 2153:1.0 
-0.8128885247511753 1573:1.0 1863:1.0 
-1.0 724:1.0 1122:1.0 
-1.0 555:1.0 689:1.0 
-0.28889291454131694 1988:1.0 2503:1.0 
-0.07192861688515353 101:1.0 535:1.0 
-1.0 1177:1.0 2528:1.0 
-0.407555872348485 2102:1.0 2469:1.0 
-1.0 1059:1.0 2906:1.0 
-0.6112180940766946 1181:1.0 1697:1.0 
-0.3559337976010103 1755:1.0 1988:1.0 
-0.11126621754193955 1930:1.0 2795:1.0 
-0.44424212335501895 1554:1.0 1993:1.0 
-0.17215362233059398 1346:1.0 2854:1.0 
-0.3997112662167944 557:1.0 2720:1.0 
-1.0 110:1.0 1424:1.0 
-0.4897133821035697 965:1.0 2993:1.0 
-1.0 2022:1.0 2541:1.0 
-0.9997334947424027 862:1.0 1174:1.0 
-0.026031513938599232 249:1.0 734:1.0 
-1.0 1131:1.0 1372:1.0 
-0.6112566096489822 320:1.0 1212:1.0 
-0.6887534970608067 2108:1.0 2318:1.0 
-1.0 2264:1.0 2294:1.0 
-0.6111816195335433 1482:1.0 2640:1.0 
-0.4071616054515161 238:1.0 275:1.0 
-0.7407173738851357 315:1.0 2402:1.0 
-1.0 279:1.0 1504:1.0 
-0.24457417288083902 2255:1.0 2820:1.0 
-0.6943553732596521 1769:1.0 2378:1.0 
-0.3815785508116719 1864:1.0 2579:1.0 
-0.7496019715624485 296:1.0 1412:1.0 
-0.4926528912342912 514:1.0 1068:1.0 
-0.2893851550292841 384:1.0 1720:1.0 
-0.12402966374793098 734:1.0 2770:1.0 
-1.0 135:1.0 809:1.0 
-1.0 107:1.0 2332:1.0 
-0.3053719536868271 1085:1.0 2037:1.0 
-1.0 273:1.0 639:1.0 
-0.4077413491866974 66:1.0 1166:1.0 
-0.6890185750587645 1503:1.0 1838:1.0 
-0.8879663768798232 861:1.0 2400:1.0 
-0.7339843623251754 1459:1.0 2772:1.0 
-0.48920462269636233 258:1.0 1448:1.0 
-0.07395671045481708 988:1.0 2129:1.0 
-0.611148076419669 1709:1.0 2508:1.0 
-0.11087100309036635 921:1.0 2337:1.0 
-0.40772868731713086 244:1.0 2055:1.0 
-0.7408350389737719 44:1.0 1034:1.0 
-0.3552703715173683 644:1.0 2553:1.0 
-0.7547978439168037 258:1.0 1459:1.0 
-0.11130158077343663 189:1.0 2630:1.0 
-0.15449044506733647 1214:1.0 2629:1.0 
-0.6438917783033331 1678:1.0 2965:1.0 
-0.40666599880399157 191:1.0 480:1.0 
-1.0 14:1.0 98:1.0 
-1.0 835:1.0 2676:1.0 
-0.11069704881571912 2407:1.0 2873:1.0 
-0.36191278320428344 245:1.0 2693:1.0 
-0.9857234980420067 235:1.0 407:1.0 
-0.7013447093050728 293:1.0 1008:1.0 
-0.8008705695409992 2649:1.0 2959:1.0 
-0.1339926530119664 2716:1.0 2973:1.0 
-0.11118778114321684 78:1.0 1407:1.0 
-0.40731577850622996 1042:1.0 1662:1.0 
-1.0 1234:1.0 2861:1.0 
-0.06238558159815161 396:1.0 1141:1.0 
-0.7406986558673342 1541:1.0 2771:1.0 
-1.0 2394:1.0 2901:1.0 
-0.2402997558951977 1469:1.0 2998:1.0 
-0.08916688128378822 2118:1.0 2570:1.0 
-0.14141334648123458 494:1.0 2492:1.0 
-0.5253840775885672 1346:1.0 1911:1.0 
-0.861210493845138 1418:1.0 2012:1.0 
-0.08862449110468387 96:1.0 1213:1.0 
-0.09502018737556042 2073:1.0 2375:1.0 
-0.5331327868611515 2234:1.0 2636:1.0 
-0.3608935762051526 602:1.0 1239:1.0 
-0.952636442320881 317:1.0 1150:1.0 
-0.6438232080194525 1535:1.0 2898:1.0 
-1.0 1894:1.0 2493:1.0 
-0.7778890216549016 428:1.0 1922:1.0 
-0.9397310760803201 2381:1.0 2492:1.0 
-1.0 2366:1.0 2462:1.0 
-0.44591707956644816 54:1.0 
-0.3053522934986548 1390:1.0 1814:1.0 
-0.9578567308236556 1258:1.0 1395:1.0 
-1.0 1761:1.0 2862:1.0 
-1.0 38:1.0 528:1.0 
-0.3326359987751447 2059:1.0 2962:1.0 
-0.2891357770753089 704:1.0 2286:1.0 
-0.6111978757736266 629:1.0 2160:1.0 
-1.0 1536:1.0 2786:1.0 
-0.11146011367907524 842:1.0 2572:1.0 
-0.3866970510516346 1499:1.0 2103:1.0 
-0.22325008953593667 2400:1.0 2823:1.0 
-1.0 1818:1.0 2868:1.0 
-0.0010359504540109754 2739:1.0 2966:1.0 
-0.30577049702425896 912:1.0 1302:1.0 
-0.4887372467057839 630:1.0 1828:1.0 
-0.1328535999142388 1322:1.0 2013:1.0 
-0.6111773590954076 1436:1.0 2821:1.0 
-0.5557474491688216 205:1.0 670:1.0 
-0.062442928491833166 1087:1.0 2330:1.0 
-0.07392719365082287 1657:1.0 2314:1.0 
-1.0 2330:1.0 2362:1.0 
-1.0 2643:1.0 2686:1.0 
-0.34553289576994917 2908:1.0 2934:1.0 
-1.0 920:1.0 2496:1.0 
-0.61118740908423 1751:1.0 2028:1.0 
-0.11090870635037331 2836:1.0 2923:1.0 
-1.0 1057:1.0 1444:1.0 
-0.07491040808341773 169:1.0 867:1.0 
-0.740088374174422 476:1.0 2083:1.0 
-1.0 359:1.0 851:1.0 
-0.40764437551210136 1856:1.0 2872:1.0 
-0.44474983508842836 136:1.0 197:1.0 
-0.11078404010147189 743:1.0 1190:1.0 
-0.08155087505170361 86:1.0 87:1.0 
-3.8458744298139336E-4 286:1.0 1360:1.0 
-0.7077699402445787 218:1.0 690:1.0 
-0.7406335049512596 2593:1.0 2719:1.0 
-1.0 1920:1.0 2093:1.0 
-0.43616509440917783 522:1.0 1741:1.0 
-0.11129099059095543 57:1.0 2628:1.0 
-0.24451968772753246 361:1.0 2385:1.0 
-0.3342115556624131 2203:1.0 2625:1.0 
-0.6111962803116364 2274:1.0 2780:1.0 
-0.0740213411824657 2536:1.0 2813:1.0 
-0.7488221434700365 235:1.0 1433:1.0 
-0.40741544490468073 145:1.0 1688:1.0 
-1.0 2172:1.0 2510:1.0 
-1.0 72:1.0 900:1.0 
-0.24397650374673668 1644:1.0 2786:1.0 
-0.7407643066683683 661:1.0 1511:1.0 
-0.5075351575208292 167:1.0 2938:1.0 
-1.0 1761:1.0 2077:1.0 
-1.0 1245:1.0 1299:1.0 
-1.0 773:1.0 1449:1.0 
-1.0 153:1.0 2475:1.0 
-0.05533937101665978 810:1.0 2674:1.0 
-0.133046729645735 1638:1.0 2951:1.0 
-0.40738281241978724 855:1.0 1340:1.0 
-0.0039549721714458586 1070:1.0 1945:1.0 
-1.0 352:1.0 800:1.0 
-0.17405315044889033 998:1.0 2311:1.0 
-0.33318481264463473 1910:1.0 2231:1.0 
-0.24534380796860403 1244:1.0 2857:1.0 
-0.2782659768838627 1981:1.0 2793:1.0 
-1.0 2410:1.0 2699:1.0 
-0.05577990557455542 810:1.0 1242:1.0 
-0.8132595020982584 733:1.0 1479:1.0 
-0.2897822183957318 1167:1.0 2653:1.0 
-0.3672701845893321 725:1.0 1737:1.0 
-1.0 1794:1.0 2435:1.0 
-0.9837142969580139 920:1.0 1163:1.0 
-0.6111631076070339 253:1.0 1370:1.0 
-0.8608892533191703 971:1.0 2473:1.0 
-1.0 396:1.0 1221:1.0 
-0.2885558989063474 2086:1.0 2312:1.0 
-1.0 140:1.0 2276:1.0 
-0.3608782944704853 299:1.0 2344:1.0 
-0.42120073103951233 579:1.0 2310:1.0 
-0.4072265255471086 138:1.0 1379:1.0 
-0.6112061764674384 1134:1.0 2883:1.0 
-1.0 715:1.0 2113:1.0 
-1.0 2429:1.0 2539:1.0 
-0.4592684887553005 1832:1.0 1864:1.0 
-0.4072112014606356 1784:1.0 2241:1.0 
-0.40735363796689983 626:1.0 844:1.0 
-1.0 813:1.0 824:1.0 
-0.35675363916719044 1237:1.0 2299:1.0 
-1.0 1714:1.0 2343:1.0 
-0.2409125247997972 1037:1.0 1942:1.0 
-1.0 1288:1.0 1373:1.0 
-0.11027942713176994 1601:1.0 2966:1.0 
-1.0 62:1.0 333:1.0 
-1.0 2309:1.0 2890:1.0 
-0.7292440720760729 36:1.0 647:1.0 
-0.11114024610741174 869:1.0 934:1.0 
-1.0 764:1.0 1628:1.0 
-0.6108657672188069 585:1.0 2140:1.0 
-0.6112059061699869 90:1.0 1145:1.0 
-0.6111804653518006 1210:1.0 2729:1.0 
-0.08957406478862248 2295:1.0 2892:1.0 
-0.4072793970781659 483:1.0 604:1.0 
-0.5503013762528834 504:1.0 2506:1.0 
-0.407651935523379 625:1.0 1466:1.0 
-0.6112790233227349 335:1.0 1216:1.0 
-0.41230925575415156 1684:1.0 2046:1.0 
-0.07499948727625583 312:1.0 867:1.0 
-1.0 1918:1.0 2853:1.0 
-0.6112078618244908 1679:1.0 2042:1.0 
-0.012331372114867983 2714:1.0 2747:1.0 
-0.11099855534534156 2603:1.0 2927:1.0 
-0.740980060332848 1541:1.0 2657:1.0 
-0.735885888857921 1690:1.0 2561:1.0 
-0.500481351983816 1234:1.0 1371:1.0 
-0.40727863628095967 1252:1.0 2065:1.0 
-1.0 649:1.0 1476:1.0 
-0.11098012381805136 1815:1.0 1817:1.0 
-0.9449404700136466 1107:1.0 1280:1.0 
-0.6111900052685817 767:1.0 1147:1.0 
-1.0 801:1.0 1112:1.0 
-1.0 1202:1.0 1252:1.0 
-1.0 2046:1.0 2782:1.0 
-0.7946710753499096 1396:1.0 2350:1.0 
-0.4892799953367683 404:1.0 777:1.0 
-1.0 387:1.0 2391:1.0 
-0.11116530646571243 393:1.0 1245:1.0 
-0.4075287424246642 148:1.0 1201:1.0 
-1.0 1375:1.0 2830:1.0 
-0.3329465880959474 1565:1.0 2374:1.0 
-0.4074205438448463 694:1.0 1603:1.0 
-0.111165223325118 390:1.0 576:1.0 
-0.14955562962733054 56:1.0 910:1.0 
-1.0 1203:1.0 2375:1.0 
-1.0 1753:1.0 2575:1.0 
-0.6451080143279727 1170:1.0 1996:1.0 
-0.48917384791201535 164:1.0 2602:1.0 
-1.0 409:1.0 1060:1.0 
-0.11115203740836294 1492:1.0 2361:1.0 
-0.239694006970474 995:1.0 1125:1.0 
-1.0 1625:1.0 2678:1.0 
-0.11098583671502776 130:1.0 1902:1.0 
-1.0 1192:1.0 1642:1.0 
-0.17564020598147434 199:1.0 1481:1.0 
-0.40759077993630644 787:1.0 1169:1.0 
-0.48852262430124826 724:1.0 2708:1.0 
-0.6439892163107913 1996:1.0 2317:1.0 
-0.003805646284110037 301:1.0 2908:1.0 
-0.7409652406592827 515:1.0 1265:1.0 
-0.8895731309036791 2366:1.0 2805:1.0 
-0.08037840683035072 280:1.0 2564:1.0 
-0.07411993519240506 1964:1.0 2763:1.0 
-0.9558488776837066 231:1.0 274:1.0 
-0.2912573623621175 622:1.0 674:1.0 
-0.3614140347629451 97:1.0 668:1.0 
-0.0740398784710953 792:1.0 2093:1.0 
-0.6111739750485867 1824:1.0 2008:1.0 
-0.0029295255624100514 1771:1.0 2950:1.0 
-1.0 530:1.0 1930:1.0 
-1.0 2199:1.0 2946:1.0 
-1.0 605:1.0 2924:1.0 
-0.407436816887783 1708:1.0 2082:1.0 
-0.5014865198406777 1690:1.0 2906:1.0 
-0.407196044921875 1398:1.0 2063:1.0 
-0.07421389103806839 322:1.0 426:1.0 
-1.0 464:1.0 879:1.0 
-0.5555602342633457 1925:1.0 2468:1.0 
-0.07335960370505479 1045:1.0 1437:1.0 
-0.4072240503572758 439:1.0 1169:1.0 
-1.0 1526:1.0 1854:1.0 
-0.40748513700131217 1340:1.0 1428:1.0 
-1.0 1586:1.0 1778:1.0 
-0.8440809817155133 843:1.0 1362:1.0 
-0.7565149947315988 164:1.0 2941:1.0 
-1.0 549:1.0 2482:1.0 
-0.07353269702558457 1075:1.0 2915:1.0 
-0.09471922763777779 272:1.0 560:1.0 
-0.20162702981037525 1585:1.0 1999:1.0 
-0.283646477708939 284:1.0 740:1.0 
-0.4072078946856752 961:1.0 2893:1.0 
-1.0 1823:1.0 2775:1.0 
-1.0 86:1.0 540:1.0 
-0.3477074779605253 2238:1.0 2807:1.0 
-0.031026138156297817 2003:1.0 2488:1.0 
-0.6112080100580977 1441:1.0 2215:1.0 
-1.0 950:1.0 2113:1.0 
-1.0 490:1.0 829:1.0 
-1.0 1703:1.0 2816:1.0 
-0.7409978156156453 520:1.0 2329:1.0 
-0.6111786218089184 168:1.0 1118:1.0 
-0.03279861857376379 272:1.0 396:1.0 
-0.6672645617673256 861:1.0 1017:1.0 
-0.4587030552494614 444:1.0 1222:1.0 
-1.0 1103:1.0 2943:1.0 
-0.07383985161768636 297:1.0 1232:1.0 
-0.7409282637563472 1380:1.0 2354:1.0 
-1.0 658:1.0 2522:1.0 
-0.11116673646635117 1957:1.0 2512:1.0 
-0.20039244838340675 56:1.0 2486:1.0 
-0.7407286864851358 2166:1.0 2483:1.0 
-0.4070479273661081 1070:1.0 2120:1.0 
-0.6112594706226286 152:1.0 940:1.0 
-0.4072306649518179 884:1.0 1030:1.0 
-0.3506964352893895 677:1.0 2807:1.0 
-0.11117171891611585 306:1.0 2491:1.0 
-0.6112808598207529 413:1.0 2119:1.0 
-0.5 1859:1.0 1955:1.0 
-1.0 2589:1.0 2745:1.0 
-0.500788188272788 510:1.0 1047:1.0 
-4.524175693809418E-4 1676:1.0 2319:1.0 
-0.07410578113220317 928:1.0 1334:1.0 
-0.6111169973292367 270:1.0 1001:1.0 
-0.5813142132668497 7:1.0 59:1.0 
-1.0 2109:1.0 2365:1.0 
-0.5559685168898855 2364:1.0 2806:1.0 
-0.5555586372400608 1568:1.0 2250:1.0 
-0.9987258012238056 620:1.0 1825:1.0 
-1.0 2836:1.0 2936:1.0 
-0.11117001718158917 698:1.0 1278:1.0 
-0.407749409958312 2265:1.0 2465:1.0 
-0.6678225297082284 543:1.0 2757:1.0 
-0.47453342052645586 332:1.0 2804:1.0 
-0.7407072392636638 766:1.0 853:1.0 
-1.0 1254:1.0 2947:1.0 
-1.0 1569:1.0 2122:1.0 
-0.1111889676532917 930:1.0 2363:1.0 
-1.0 1105:1.0 2502:1.0 
-0.33392810622483876 1993:1.0 2059:1.0 
-0.40738425277390855 773:1.0 1686:1.0 
-0.8094454411903564 505:1.0 2607:1.0 
-1.0 2263:1.0 2276:1.0 
-1.0 799:1.0 2663:1.0 
-0.40729891945141145 1749:1.0 2110:1.0 
-0.24044479453125472 2609:1.0 2678:1.0 
-1.0 383:1.0 733:1.0 
-0.07328854614137367 2303:1.0 2839:1.0 
-0.002623321771299897 1493:1.0 1494:1.0 
-0.2892567843212703 1678:1.0 1854:1.0 
-0.5234941191440217 301:1.0 1367:1.0 
-0.6111766755260496 511:1.0 2532:1.0 
-0.40767268144025237 385:1.0 2150:1.0 
-6.133982741743926E-4 480:1.0 483:1.0 
-0.11044808992703045 499:1.0 1297:1.0 
-4.0520867612825473E-4 2927:1.0 2930:1.0 
-1.0 5:1.0 828:1.0 
-1.0 1944:1.0 2548:1.0 
-0.6438456739037959 1094:1.0 2058:1.0 
-0.04356857424541791 1171:1.0 1496:1.0 
-0.6114379572894709 2200:1.0 2433:1.0 
-1.0 812:1.0 1716:1.0 
-0.9331477188124675 2153:1.0 2895:1.0 
-0.0555687928197067 2237:1.0 2925:1.0 
-0.47444441667151466 1610:1.0 2804:1.0 
-1.0 568:1.0 713:1.0 
-0.7407191184564939 1912:1.0 2190:1.0 
-1.0 2056:1.0 2867:1.0 
-0.33231452050384525 731:1.0 772:1.0 
-0.27749833182590256 1819:1.0 2907:1.0 
-0.4077879284356736 70:1.0 1290:1.0 
-1.0 1149:1.0 1328:1.0 
-0.9547938161866788 2894:1.0 2973:1.0 
-0.11139480786934416 1447:1.0 2690:1.0 
-0.4073544961176164 1687:1.0 2590:1.0 
-0.6112709045410156 728:1.0 1487:1.0 
-1.0 129:1.0 465:1.0 
-1.0 2438:1.0 2567:1.0 
-0.6111830210785878 590:1.0 1330:1.0 
-0.1508833321084696 1222:1.0 2880:1.0 
-1.0 531:1.0 934:1.0 
-0.6109118747011677 949:1.0 2931:1.0 
-0.5556404087146094 2250:1.0 2955:1.0 
-0.0743182161872035 2093:1.0 2803:1.0 
-1.0 1853:1.0 2540:1.0 
-0.11117428070473256 2394:1.0 2413:1.0 
-0.002088224868448063 1907:1.0 2915:1.0 
-1.0 2420:1.0 2490:1.0 
-0.5555546031437284 144:1.0 2049:1.0 
-0.11137691422515417 711:1.0 1000:1.0 
-0.055652763296064084 810:1.0 1078:1.0 
-0.21015497863670868 568:1.0 2134:1.0 
-0.3614703451951129 1353:1.0 1869:1.0 
-0.11123465565955418 1723:1.0 2652:1.0 
-1.0 1284:1.0 2276:1.0 
-7.297791840159551E-4 367:1.0 1297:1.0 
-0.4074420086689603 1629:1.0 2138:1.0 
-1.0 1121:1.0 1228:1.0 
-0.46266351133908723 770:1.0 2841:1.0 
-0.07604278483722368 227:1.0 903:1.0 
-0.4994802700840178 406:1.0 2840:1.0 
-0.7408470566440842 1034:1.0 1391:1.0 
-0.9438015111622455 99:1.0 712:1.0 
-0.4576596185286561 685:1.0 871:1.0 
-0.933136155682508 1531:1.0 2594:1.0 
-0.40730398380515803 2686:1.0 2766:1.0 
-0.11120402993414577 437:1.0 1528:1.0 
-0.30561120322236823 463:1.0 1840:1.0 
-0.3056289457068079 1390:1.0 1406:1.0 
-0.5559004150456419 2614:1.0 2668:1.0 
-1.0 2457:1.0 2781:1.0 
-0.7409679470695576 846:1.0 2128:1.0 
-0.24918715152578927 377:1.0 1137:1.0 
-0.30545150449423764 368:1.0 852:1.0 
-1.0 1340:1.0 2221:1.0 
-1.0 1096:1.0 2821:1.0 
-0.11131279348082224 1823:1.0 2275:1.0 
-1.0 247:1.0 2568:1.0 
-0.9447217679202912 1280:1.0 2781:1.0 
-0.9837303745523738 3:1.0 1560:1.0 
-0.4991457088441816 684:1.0 1279:1.0 
-0.4934323277214331 438:1.0 2782:1.0 
-0.7409454903412688 112:1.0 506:1.0 
-0.7989130125781009 2048:1.0 2747:1.0 
-0.11116786401356854 76:1.0 243:1.0 
-0.6111780266152448 1949:1.0 2173:1.0 
-1.0 857:1.0 974:1.0 
-0.8438365620813786 2189:1.0 2920:1.0 
-0.611174448217681 561:1.0 1703:1.0 
-0.6449213770814639 100:1.0 1138:1.0 
-1.0 1878:1.0 1931:1.0 
-1.0 14:1.0 1118:1.0 
-0.05946230008897299 87:1.0 571:1.0 
-4.4027820012240704E-4 1190:1.0 2467:1.0 
-1.0 159:1.0 1774:1.0 
-0.11316152601363516 263:1.0 1778:1.0 
-0.5566644771699922 2479:1.0 2798:1.0 
-0.11231953706002445 219:1.0 1083:1.0 
-0.6112011596834057 353:1.0 2057:1.0 
-0.023544852324801052 317:1.0 410:1.0 
-1.0 2019:1.0 2438:1.0 
-0.36084792160855195 251:1.0 432:1.0 
-0.8608699511147913 486:1.0 2453:1.0 
-0.9979095174543039 1083:1.0 2099:1.0 
-0.666201099401464 2283:1.0 2823:1.0 
-0.11118794375958693 840:1.0 1055:1.0 
-0.611271076042168 324:1.0 1248:1.0 
-3.998720758850438E-4 1056:1.0 2140:1.0 
-0.23762139783767222 1639:1.0 2679:1.0 
-1.0 2073:1.0 2310:1.0 
-0.8093718912914267 1262:1.0 1396:1.0 
-1.0 1381:1.0 2917:1.0 
-1.0 1857:1.0 2674:1.0 
-0.7408955946242363 541:1.0 1511:1.0 
-0.40755903256553283 905:1.0 1030:1.0 
-1.0 584:1.0 2607:1.0 
-0.8609010800430684 1700:1.0 2683:1.0 
-1.0 841:1.0 1333:1.0 
-0.11137764469212222 202:1.0 1623:1.0 
-0.04370008641090353 262:1.0 2892:1.0 
-1.0 326:1.0 947:1.0 
-1.0 2227:1.0 2514:1.0 
-1.0 1867:1.0 1970:1.0 
-0.611273723800458 1159:1.0 1515:1.0 
-0.1395390306169264 1772:1.0 2095:1.0 
-0.6111505889240615 489:1.0 913:1.0 
-1.0 894:1.0 2963:1.0 
-0.6109012440011615 1288:1.0 2779:1.0 
-0.7528880518684764 1969:1.0 2632:1.0 
-1.0 1249:1.0 1858:1.0 
-0.11127466307299169 1004:1.0 1605:1.0 
-1.0 1528:1.0 2877:1.0 
-0.11126599386062289 552:1.0 1454:1.0 
-1.0 1730:1.0 2040:1.0 
-0.5237857568674598 27:1.0 493:1.0 
-1.0 60:1.0 903:1.0 
-1.0 860:1.0 1244:1.0 
-1.0 487:1.0 825:1.0 
-0.7294069391854034 266:1.0 798:1.0 
-0.6112901824433945 355:1.0 2742:1.0 
-0.7577105675258343 281:1.0 2047:1.0 
-1.0 1799:1.0 2381:1.0 
-0.2734135365585863 267:1.0 2486:1.0 
-1.0 1136:1.0 2259:1.0 
-0.9971894940936896 1494:1.0 1936:1.0 
-1.0 198:1.0 2616:1.0 
-0.6155617448528958 2134:1.0 2525:1.0 
-7.386907487852978E-4 220:1.0 1175:1.0 
-1.0 78:1.0 2967:1.0 
-0.7407086110550196 1529:1.0 1946:1.0 
-0.9433477149127231 263:1.0 2095:1.0 
-0.07406913272898946 1559:1.0 1714:1.0 
-0.6114485296559643 110:1.0 1333:1.0 
-0.24896312799620277 1690:1.0 2900:1.0 
-1.0 777:1.0 1083:1.0 
-1.0 2591:1.0 2637:1.0 
-1.0 295:1.0 876:1.0 
-0.48871693031717106 1566:1.0 2417:1.0 
-0.40742639780494594 1502:1.0 2796:1.0 
-0.1110508488355085 1434:1.0 1548:1.0 
-0.11382573210987021 2099:1.0 2481:1.0 
-0.40739617781340964 1615:1.0 2056:1.0 
-0.9331189336761452 179:1.0 1755:1.0 
-0.9450642935918315 31:1.0 2033:1.0 
-1.0 1803:1.0 2487:1.0 
-0.6111117040197989 544:1.0 1842:1.0 
-0.8609265883661816 821:1.0 1400:1.0 
-0.5557285356289177 1153:1.0 1158:1.0 
-0.9006059620242004 513:1.0 579:1.0 
-1.0 1527:1.0 1847:1.0 
-0.07424834756166174 82:1.0 738:1.0 
-0.4077563842443306 420:1.0 2641:1.0 
-0.40756475164573436 154:1.0 598:1.0 
-0.6112071487558839 1757:1.0 1871:1.0 
-0.8615473754066898 1039:1.0 2840:1.0 
-0.5552849333834471 1076:1.0 2668:1.0 
-1.0 2318:1.0 2975:1.0 
-0.6725698473284502 56:1.0 1683:1.0 
-0.19303958837369337 218:1.0 521:1.0 
-0.6113159127907274 1608:1.0 1835:1.0 
-1.0 1117:1.0 2455:1.0 
-0.24039730704890694 1047:1.0 1122:1.0 
-0.30567087081076816 1376:1.0 1767:1.0 
-0.9993580761822396 1533:1.0 2656:1.0 
-0.11138986432718725 765:1.0 2409:1.0 
-0.8609691565294452 1997:1.0 2622:1.0 
-0.27813927044619285 805:1.0 1315:1.0 
-0.2886463705111803 2458:1.0 2472:1.0 
-1.0 1276:1.0 2981:1.0 
-0.3056988478287146 2037:1.0 2411:1.0 
-0.9446624157554223 31:1.0 1430:1.0 
-1.0 8:1.0 92:1.0 
-0.30703391163240074 685:1.0 2880:1.0 
-0.2892538210632355 592:1.0 2317:1.0 
-0.11120712750516748 785:1.0 1963:1.0 
-0.5557996744949816 88:1.0 2620:1.0 
-1.0 1608:1.0 1767:1.0 
-1.0 1866:1.0 2982:1.0 
-1.0 217:1.0 1238:1.0 
-0.6111399526123231 500:1.0 1155:1.0 
-1.0 2293:1.0 2718:1.0 
-1.0 1327:1.0 2982:1.0 
-1.0 923:1.0 2810:1.0 
-0.09542646408647074 1141:1.0 2881:1.0 
-0.6464563301573865 2286:1.0 2972:1.0 
-1.0 571:1.0 982:1.0 
-0.7406251740144837 1275:1.0 2975:1.0 
-0.489335098346671 2328:1.0 2584:1.0 
-0.24512928399853984 2496:1.0 2933:1.0 
-1.0 55:1.0 1270:1.0 
-0.3453255725848925 791:1.0 984:1.0 
-0.5554135962369222 888:1.0 1158:1.0 
-0.6112138036898984 1754:1.0 2643:1.0 
-1.0 533:1.0 1077:1.0 
-0.3881176328135202 1280:1.0 2793:1.0 
-0.4071843518725724 200:1.0 577:1.0 
-0.4418110557299228 458:1.0 2685:1.0 
-0.44728116953795316 811:1.0 1485:1.0 
-0.30569038822230443 1100:1.0 1390:1.0 
-0.11176949658175434 416:1.0 666:1.0 
-0.21960443642975974 1589:1.0 2316:1.0 
-0.08850473528071595 91:1.0 1520:1.0 
-0.888725605629724 192:1.0 2620:1.0 
-1.0 17:1.0 1348:1.0 
-0.11113586987393001 1123:1.0 1164:1.0 
-0.38037954020341047 2499:1.0 2867:1.0 
-1.0 656:1.0 2102:1.0 
-0.32055728433202313 358:1.0 548:1.0 
-0.6450053224533024 425:1.0 864:1.0 
-1.0 1354:1.0 2935:1.0 
-0.8893169924369002 134:1.0 745:1.0 
-0.010279806313027606 123:1.0 1798:1.0 
-0.6112788845213947 586:1.0 697:1.0 
-0.40761794952848895 139:1.0 1203:1.0 
-0.0739876184553086 1404:1.0 2599:1.0 
-0.48924957479462095 1635:1.0 1648:1.0 
-1.0 246:1.0 2517:1.0 
-1.0 1134:1.0 1216:1.0 
-0.11119566207729306 206:1.0 778:1.0 
-0.11132705653648259 2530:1.0 2713:1.0 
-0.6108936335006996 1204:1.0 1567:1.0 
-0.08844854556390636 1110:1.0 2145:1.0 
-5.586243076898811E-4 295:1.0 1204:1.0 
-1.0 1235:1.0 2681:1.0 
-0.24408875262032864 2513:1.0 2827:1.0 
-0.6111905301137316 863:1.0 1207:1.0 
-1.0 336:1.0 1036:1.0 
-0.333818976768788 2560:1.0 2801:1.0 
-0.3057443947842642 1837:1.0 2156:1.0 
-0.40497347918804577 860:1.0 1458:1.0 
-0.08961346188253799 608:1.0 1171:1.0 
-8.848195063349273E-4 499:1.0 1841:1.0 
-0.40938941877895507 780:1.0 1647:1.0 
-1.0 705:1.0 724:1.0 
-0.03128302699829133 2488:1.0 2524:1.0 
-0.4892091951972657 1644:1.0 2188:1.0 
-1.0 10:1.0 82:1.0 
-1.0 1223:1.0 1281:1.0 
-0.11121015903826995 1079:1.0 2604:1.0 
-0.610425571266364 1929:1.0 2088:1.0 
-1.0 846:1.0 1180:1.0 
-1.0 179:1.0 1807:1.0 
-0.7497611019312553 482:1.0 2268:1.0 
-1.0 1019:1.0 1924:1.0 
-0.7862887365150525 1551:1.0 2768:1.0 
-0.6112780811249872 291:1.0 715:1.0 
-0.611207735807496 89:1.0 2707:1.0 
-1.0 893:1.0 1488:1.0 
-0.48842746893166034 1133:1.0 1176:1.0 
-0.40745354196195427 990:1.0 991:1.0 
-0.11133987424326905 352:1.0 862:1.0 
-0.8055682963034629 1521:1.0 2229:1.0 
-0.5747223267613611 1156:1.0 1313:1.0 
-0.11118656535125329 436:1.0 973:1.0 
-0.11141648987231387 1050:1.0 2356:1.0 
-0.4893473577938544 210:1.0 737:1.0 
-1.0 1980:1.0 2438:1.0 
-1.0 1378:1.0 1708:1.0 
-0.4074047674296023 483:1.0 678:1.0 
-0.1111759467332766 897:1.0 1951:1.0 
-0.5748384729747275 1152:1.0 1347:1.0 
-0.7405580660103839 2157:1.0 2354:1.0 
-1.0 1904:1.0 2145:1.0 
-0.07410739973706829 2199:1.0 2216:1.0 
-1.0 1657:1.0 2014:1.0 
-1.0 209:1.0 1225:1.0 
-0.11126581347006048 563:1.0 1664:1.0 
-1.0 2654:1.0 2683:1.0 
-0.44414291508825876 2005:1.0 2637:1.0 
-1.0 2176:1.0 2834:1.0 
-1.0 1187:1.0 1246:1.0 
-0.48399868842109334 1809:1.0 2047:1.0 
-1.0 790:1.0 1465:1.0 
-1.0 700:1.0 2715:1.0 
-0.10985463112620258 2610:1.0 2757:1.0 
-1.0 1816:1.0 2937:1.0 
-0.6112042282580696 1259:1.0 2390:1.0 
-1.0 198:1.0 455:1.0 
-0.6112643702376033 73:1.0 2032:1.0 
-0.1112786830401076 2212:1.0 2730:1.0 
-1.0 628:1.0 1135:1.0 
-1.0 781:1.0 2630:1.0 
-0.6113419293260092 434:1.0 2106:1.0 
-0.23769110840005728 609:1.0 2420:1.0 
-1.0 1566:1.0 1669:1.0 
-0.11123496207049557 454:1.0 1803:1.0 
-0.3977975021058046 1146:1.0 1684:1.0 
-1.0 1648:1.0 1693:1.0 
-1.0 2154:1.0 2460:1.0 
-0.9441701055803677 360:1.0 1422:1.0 
-0.6451350236386846 786:1.0 2965:1.0 
-0.44521635755352085 49:1.0 807:1.0 
-0.07417997456197942 1990:1.0 2004:1.0 
-0.44372996150657606 472:1.0 807:1.0 
-0.3674773545400113 1048:1.0 2632:1.0 
-0.8610194397664115 2267:1.0 2300:1.0 
-0.7407119880926378 140:1.0 1269:1.0 
-0.11134104029213804 1631:1.0 2958:1.0 
-0.5085767734681153 440:1.0 2075:1.0 
-0.20151097926234282 123:1.0 505:1.0 
-0.11114158484671996 2282:1.0 2788:1.0 
-0.9483286751661674 227:1.0 2929:1.0 
-0.5557698040269388 2049:1.0 2090:1.0 
-0.8411387455599211 507:1.0 1178:1.0 
-0.6111923330110631 2271:1.0 2835:1.0 
-0.6673430775477716 381:1.0 817:1.0 
-0.6414619750625914 790:1.0 1006:1.0 
-0.30557249293021194 1382:1.0 2850:1.0 
-1.0 162:1.0 792:1.0 
-1.0 1801:1.0 2363:1.0 
-0.9485211669418698 734:1.0 2252:1.0 
-0.011124556316782802 2607:1.0 2615:1.0 
-1.0 120:1.0 2524:1.0 
-0.6135546744338997 218:1.0 558:1.0 
-1.0 594:1.0 1680:1.0 
-1.0 2159:1.0 2431:1.0 
-1.0 57:1.0 2025:1.0 
-1.0 366:1.0 2425:1.0 
-1.0 1772:1.0 2451:1.0 
-0.07243284558224922 1205:1.0 2542:1.0 
-0.05557499664899829 2237:1.0 2474:1.0 
-1.0 1883:1.0 2362:1.0 
-0.40749831788013763 1252:1.0 1587:1.0 
-1.0 556:1.0 881:1.0 
-0.24086805124303676 1942:1.0 2464:1.0 
-0.001142300957494874 1049:1.0 1176:1.0 
-0.07389960884328287 618:1.0 763:1.0 
-0.13387179574358002 94:1.0 1005:1.0 
-1.0 589:1.0 2816:1.0 
-0.5554137107502244 205:1.0 1901:1.0 
-1.0 664:1.0 1691:1.0 
-8.443720361106799E-4 921:1.0 1613:1.0 
-0.5018601298629307 235:1.0 2940:1.0 
-1.0 1352:1.0 2434:1.0 
-0.11115124621132214 339:1.0 2373:1.0 
-1.0 1820:1.0 2072:1.0 
-0.11128517614406674 619:1.0 1445:1.0 
-1.0 623:1.0 1870:1.0 
-0.002098979337843948 2860:1.0 2945:1.0 
-0.07429742294448732 1205:1.0 1620:1.0 
-0.0742735409730946 297:1.0 616:1.0 
-0.04523989305334772 492:1.0 1496:1.0 
-1.0 688:1.0 1291:1.0 
-1.0 1796:1.0 2275:1.0 
-0.07454672257291745 708:1.0 1825:1.0 
-0.07437944646579323 162:1.0 2741:1.0 
-1.0 441:1.0 784:1.0 
-1.0 969:1.0 1234:1.0 
-0.5002888793112913 299:1.0 1319:1.0 
-1.0 280:1.0 2893:1.0 
-0.2885835988630026 1692:1.0 2666:1.0 
-1.0 391:1.0 1191:1.0 
-0.9329820479975172 346:1.0 2482:1.0 
-0.6113012487475322 802:1.0 1130:1.0 
-0.6112620421975595 892:1.0 1326:1.0 
-1.0 500:1.0 2737:1.0 
-0.244407701380034 2432:1.0 2759:1.0 
-0.9336549343163054 1032:1.0 1818:1.0 
-0.1111771967273002 1505:1.0 2368:1.0 
-1.0 1087:1.0 1126:1.0 
-0.40746753032596145 452:1.0 2186:1.0 
-1.0 771:1.0 2104:1.0 
-0.7407882560845961 112:1.0 1409:1.0 
-0.2893419310403762 1535:1.0 2646:1.0 
-0.08062338189711737 280:1.0 732:1.0 
-1.0 1574:1.0 1645:1.0 
-1.0 1836:1.0 1860:1.0 
-0.11117853126817995 1229:1.0 1844:1.0 
-1.0 16:1.0 287:1.0 
-1.0 2347:1.0 2566:1.0 
-0.40731964892313755 782:1.0 1624:1.0 
-1.0 259:1.0 1598:1.0 
-0.7409103229759199 225:1.0 1383:1.0 
-1.0 2661:1.0 2960:1.0 
-0.40721161763600433 319:1.0 2066:1.0 
-1.0 2216:1.0 2280:1.0 
-0.5552838416751147 294:1.0 1161:1.0 
-0.6112743058506016 641:1.0 966:1.0 
-0.3057216829163851 463:1.0 2538:1.0 
-0.34993974573874115 1115:1.0 2311:1.0 
-1.0 587:1.0 827:1.0 
-0.08805648305479169 722:1.0 1395:1.0 
-1.0 1343:1.0 2516:1.0 
-0.19884784375063108 733:1.0 2441:1.0 
-0.11120685830805416 882:1.0 1281:1.0 
-0.6893375351054807 843:1.0 2078:1.0 
-0.6112234768476125 1151:1.0 2494:1.0 
-0.4441914696803757 414:1.0 1053:1.0 
-1.0 234:1.0 2501:1.0 
-1.0 1185:1.0 1205:1.0 
-0.11109947339740991 595:1.0 1221:1.0 
-0.6112619124602326 466:1.0 1113:1.0 
-0.2429074238784816 1255:1.0 2015:1.0 
-0.5764008516957562 2287:1.0 2782:1.0 
-1.0 305:1.0 857:1.0 
-0.04919460193610578 2091:1.0 2147:1.0 
-0.3053836028295139 1018:1.0 1065:1.0 
-1.0 2045:1.0 2974:1.0 
-1.0 1955:1.0 2432:1.0 
-0.7261510101825823 56:1.0 1067:1.0 
-0.11140445565954518 2170:1.0 2843:1.0 
-0.6111720835345554 874:1.0 1599:1.0 
-1.0 449:1.0 1870:1.0 
-0.07416476950100767 451:1.0 2216:1.0 
-0.969031019962906 195:1.0 1087:1.0 
-0.3057991542386294 115:1.0 852:1.0 
-0.043837001170279805 2334:1.0 2899:1.0 
-0.48844054223285505 1718:1.0 1759:1.0 
-0.40742089803711545 1705:1.0 1989:1.0 
-1.0 1364:1.0 1479:1.0 
-1.0 966:1.0 1555:1.0 
-0.2451420831231151 2389:1.0 2786:1.0 
-0.6112059452632153 283:1.0 2351:1.0 
-0.3879869542905101 31:1.0 805:1.0 
-0.8145946241431546 1518:1.0 1857:1.0 
-1.0 1686:1.0 2141:1.0 
-0.08933701812351899 239:1.0 1389:1.0 
-0.8143957279923326 2075:1.0 2378:1.0 
-0.17361474177622158 199:1.0 2387:1.0 
-1.0 1758:1.0 1766:1.0 
-0.35583587586560766 1802:1.0 2594:1.0 
-1.0 698:1.0 1548:1.0 
-1.0 485:1.0 2122:1.0 
-0.04522935669667727 2899:1.0 2916:1.0 
-0.6892533260749037 2325:1.0 2629:1.0 
-0.7276314264966554 377:1.0 540:1.0 
-0.38466421388240346 2000:1.0 2619:1.0 
-1.0 2521:1.0 2549:1.0 
-0.48868321862969766 2184:1.0 2902:1.0 
-0.5065365147592054 1704:1.0 1965:1.0 
-0.09494607660764684 558:1.0 1249:1.0 
-0.40894016999525173 938:1.0 1458:1.0 
-0.6109713138988639 2039:1.0 2825:1.0 
-0.6109801776701793 447:1.0 1453:1.0 
-0.40750957424887124 2100:1.0 2970:1.0 
-0.1113236095064469 1292:1.0 1494:1.0 
-1.0 2716:1.0 2864:1.0 
-0.9976622376347782 622:1.0 2286:1.0 
-1.0 100:1.0 474:1.0 
-0.4076136324762858 452:1.0 1029:1.0 
-0.5013652187122022 1378:1.0 2534:1.0 
-0.08929287113322576 806:1.0 828:1.0 
-0.6111413371715075 752:1.0 837:1.0 
-0.4596602864687278 538:1.0 1178:1.0 
-0.9995000817275159 369:1.0 2912:1.0 
-1.0 1309:1.0 2946:1.0 
-1.0 2856:1.0 
-1.0 416:1.0 1009:1.0 
-0.28915900802385375 304:1.0 559:1.0 
-1.0 762:1.0 2253:1.0 
-0.40730351992318975 1575:1.0 1966:1.0 
-1.0 1058:1.0 1261:1.0 
-0.5094897787138541 1752:1.0 1769:1.0 
-0.11117094982214593 22:1.0 632:1.0 
-1.0 1199:1.0 1463:1.0 
-0.11119621576178587 2663:1.0 2812:1.0 
-0.6111329905688763 495:1.0 2497:1.0 
-0.5001511260893652 357:1.0 2515:1.0 
-0.6111795974384321 85:1.0 800:1.0 
-0.0750322113497624 1765:1.0 2257:1.0 
-0.11070519990125971 220:1.0 967:1.0 
-0.4073992747807319 1160:1.0 1304:1.0 
-1.0 2218:1.0 2671:1.0 
-0.11124983904490016 808:1.0 1320:1.0 
-0.40749495294082494 2415:1.0 2695:1.0 
-0.48953173833305935 1132:1.0 2588:1.0 
-0.07428581209928112 928:1.0 1015:1.0 
-0.2439069984356551 1542:1.0 1635:1.0 
-0.6112594081540761 660:1.0 1914:1.0 
-0.4074079458735457 1762:1.0 2484:1.0 
-0.6113589324485096 2743:1.0 2778:1.0 
-1.0 1171:1.0 1405:1.0 
-0.407386354271645 177:1.0 2112:1.0 
-0.5932385750108139 1518:1.0 2590:1.0 
-0.5736045557019751 174:1.0 312:1.0 
-0.407349773056481 148:1.0 1490:1.0 
-1.0 632:1.0 1216:1.0 
-1.0 468:1.0 1461:1.0 
-0.6112335771417301 402:1.0 865:1.0 
-0.40703003947443805 30:1.0 1360:1.0 
-0.07420941685570556 380:1.0 618:1.0 
-0.2888824579478412 1116:1.0 2785:1.0 
-0.7409946629454528 766:1.0 2450:1.0 
-0.4464905688668264 221:1.0 458:1.0 
-0.7409557183140087 75:1.0 1206:1.0 
-1.0 691:1.0 2533:1.0 
-1.0 857:1.0 2342:1.0 
-1.0 851:1.0 1991:1.0 
-0.11129227606256137 1460:1.0 2139:1.0 
-0.4076729977201156 626:1.0 1157:1.0 
-0.6112672120178217 1677:1.0 1847:1.0 
-0.28846588665287 2023:1.0 2298:1.0 
-0.611295620126348 52:1.0 1439:1.0 
-1.0 356:1.0 2488:1.0 
-0.11098204628504793 1984:1.0 2692:1.0 
-0.11117282936762243 39:1.0 178:1.0 
-1.0 1197:1.0 2886:1.0 
-0.07455954963850617 1825:1.0 2977:1.0 
-0.6112530927330622 108:1.0 163:1.0 
-1.0 2539:1.0 2564:1.0 
-1.0 194:1.0 1326:1.0 
-0.07424721255486358 2397:1.0 2563:1.0 
-0.6111822319611577 289:1.0 2725:1.0 
-0.6409762326313402 748:1.0 834:1.0 
-0.38620502561751324 501:1.0 504:1.0 
-0.6111862144577063 1104:1.0 2573:1.0 
-1.0 1242:1.0 2161:1.0 
-0.04406794216280582 374:1.0 453:1.0 
-0.9968566670420436 2319:1.0 2481:1.0 
-1.0 2253:1.0 2591:1.0 
-0.28898016903643037 2550:1.0 2997:1.0 
-1.0 539:1.0 2807:1.0 
-0.6438916144287232 1782:1.0 2169:1.0 
-1.0 281:1.0 2118:1.0 
-1.0 368:1.0 2521:1.0 
-0.7408392132835661 956:1.0 1716:1.0 
-0.5003695970300513 403:1.0 821:1.0 
-0.6441065141946212 304:1.0 864:1.0 
-0.6112484541100346 2208:1.0 2979:1.0 
-0.2393366892735094 894:1.0 1137:1.0 
-0.11168852460613543 924:1.0 1994:1.0 
-0.4075625170683266 2031:1.0 2143:1.0 
-1.0 263:1.0 2537:1.0 
-0.40744022088957177 1160:1.0 1663:1.0 
-0.11121187431201604 77:1.0 422:1.0 
-0.9559935189314456 1638:1.0 2735:1.0 
-0.3661583753036978 1787:1.0 1977:1.0 
-0.740647891823638 75:1.0 81:1.0 
-0.08925969144043447 2461:1.0 2983:1.0 
-0.11120708837739013 2116:1.0 2967:1.0 
-1.0 8:1.0 1958:1.0 
-1.0 1452:1.0 2030:1.0 
-0.07392853226616336 917:1.0 2578:1.0 
-0.8057101817190111 250:1.0 797:1.0 
-2.636090928145318E-4 1984:1.0 2923:1.0 
-0.611178389796755 1939:1.0 2753:1.0 
-1.0 1594:1.0 2557:1.0 
-1.0 126:1.0 498:1.0 
-1.0 2290:1.0 2859:1.0 
-0.8893555465479415 472:1.0 753:1.0 
-1.0 1900:1.0 2735:1.0 
-1.0 257:1.0 469:1.0 
-0.045163539187878854 262:1.0 962:1.0 
-0.045125085285957905 688:1.0 2194:1.0 
-1.0 149:1.0 941:1.0 
-0.6445206672008365 948:1.0 1116:1.0 
-1.0 137:1.0 1127:1.0 
-0.49892874175315943 2534:1.0 2693:1.0 
-1.0 950:1.0 1200:1.0 
-0.11032827092298628 1397:1.0 1986:1.0 
-0.667393874420475 508:1.0 1819:1.0 
-1.0 207:1.0 2430:1.0 
-1.0 1583:1.0 1750:1.0 
-0.3344754165721963 1868:1.0 2610:1.0 
-0.4067461446716143 636:1.0 713:1.0 
-0.4994778229934683 2069:1.0 2956:1.0 
-1.0 50:1.0 984:1.0 
-1.0 1734:1.0 2791:1.0 
-0.40702674749780665 286:1.0 2150:1.0 
-1.0 1369:1.0 1932:1.0 
-0.7328374363550265 2406:1.0 2941:1.0 
-0.11120024662201125 687:1.0 1149:1.0 
-0.4074292322875374 478:1.0 1466:1.0 
-0.41082333291471185 1585:1.0 1934:1.0 
-0.48860929471769465 994:1.0 1244:1.0 
-1.0 245:1.0 1198:1.0 
-0.07174919308841807 101:1.0 929:1.0 
-2.051226280690155E-4 270:1.0 2931:1.0 
-1.0 2102:1.0 2110:1.0 
-1.0 1748:1.0 2799:1.0 
-1.0 1956:1.0 2029:1.0 
-1.0 958:1.0 1942:1.0 
-1.0 52:1.0 1306:1.0 
-0.40742302543924747 1724:1.0 1898:1.0 
-0.4073750817705697 1831:1.0 2485:1.0 
-0.7415554680738994 684:1.0 895:1.0 
-0.03290104096824334 2249:1.0 2488:1.0 
-0.4074694233563523 1773:1.0 2259:1.0 
-0.24429094299394247 361:1.0 1176:1.0 
-0.6111741590416621 16:1.0 2175:1.0 
-0.08949282083889448 2053:1.0 2334:1.0 
-0.11127118609219908 1867:1.0 2926:1.0 
-1.0 127:1.0 1109:1.0 
-0.5002941514497949 602:1.0 649:1.0 
-0.28855199886783045 350:1.0 3000:1.0 
-0.045131762851475826 1095:1.0 2145:1.0 
-0.7407090206517934 1801:1.0 2721:1.0 
-0.6111698054291999 477:1.0 1783:1.0 
-0.36081633208290986 567:1.0 671:1.0 
-0.6113084997486522 944:1.0 1254:1.0 
-1.0 1541:1.0 1789:1.0 
-0.12676113291157717 195:1.0 2733:1.0 
-0.6111531582105525 248:1.0 1183:1.0 
-0.6112782825723985 190:1.0 1506:1.0 
-1.0 8:1.0 241:1.0 
-0.11093689882234328 1676:1.0 2391:1.0 
-1.0 25:1.0 531:1.0 
-0.40750199894801065 991:1.0 2822:1.0 
-1.0 1337:1.0 2360:1.0 
-0.07434631111215234 1717:1.0 2536:1.0 
-0.6112427854215627 20:1.0 1300:1.0 
-0.6112645761309702 1274:1.0 2001:1.0 
-0.8612656562496146 2534:1.0 2957:1.0 
-0.6449679842048466 1094:1.0 1897:1.0 
-1.0 250:1.0 1022:1.0 
-0.026062115327777025 914:1.0 1277:1.0 
-1.0 987:1.0 1052:1.0 
-1.0 1991:1.0 2757:1.0 
-1.0 437:1.0 534:1.0 
-0.3963645432306299 832:1.0 1999:1.0 
-1.0 2038:1.0 2307:1.0 
-0.40766600421269494 635:1.0 1915:1.0 
-1.0 219:1.0 503:1.0 
-0.40740545335470113 653:1.0 2087:1.0 
-0.28840737874973593 674:1.0 1785:1.0 
-0.40760208612127863 1705:1.0 2879:1.0 
-0.661236899890348 1731:1.0 2479:1.0 
-0.36739476240372654 290:1.0 2632:1.0 
-0.6890405040797629 2318:1.0 2732:1.0 
-0.7772790328293195 543:1.0 1238:1.0 
-0.6111784156626181 2582:1.0 2592:1.0 
-0.6114581409564808 113:1.0 2864:1.0 
-0.6892942469936723 1503:1.0 1672:1.0 
-1.0 1251:1.0 1335:1.0 
-0.6112284071561209 1525:1.0 2815:1.0 
-1.0 2382:1.0 2709:1.0 
-0.20602647116981587 457:1.0 1020:1.0 
-1.0 2292:1.0 2530:1.0 
-0.09943119663504227 410:1.0 2025:1.0 
-0.0742038783926684 336:1.0 1758:1.0 
-0.11047405991697917 381:1.0 2203:1.0 
-0.969104516847494 509:1.0 1141:1.0 
-0.11121054054379276 129:1.0 2435:1.0 
-0.33442380825652074 811:1.0 947:1.0 
-0.24480422816702896 630:1.0 2527:1.0 
-0.6111959407102561 681:1.0 2487:1.0 
-1.0 302:1.0 1228:1.0 
-1.0 1271:1.0 1398:1.0 
-0.011953035337655876 1059:1.0 1106:1.0 
-1.0 1605:1.0 2277:1.0 
-1.0 2929:1.0 2967:1.0 
-0.11101313567058099 2011:1.0 2407:1.0 
-0.2544718281662751 1809:1.0 2754:1.0 
-0.0015559713811502118 370:1.0 1205:1.0 
-0.24025202410820265 895:1.0 2777:1.0 
-0.4995846329440528 97:1.0 1658:1.0 
-0.07445276249624977 2129:1.0 2624:1.0 
-0.7407771713225322 1829:1.0 2483:1.0 
-1.0 336:1.0 1457:1.0 
-0.6111853242266703 1861:1.0 2855:1.0 
-0.28909919353100466 442:1.0 1726:1.0 
-0.11108410570657029 241:1.0 1342:1.0 
-0.8056670342952983 250:1.0 1602:1.0 
-0.6111727068053108 822:1.0 1882:1.0 
-0.11128322797128731 155:1.0 761:1.0 
-0.09955420785811708 1208:1.0 1233:1.0 
-1.0 1572:1.0 2132:1.0 
-0.2906342504078187 1006:1.0 1892:1.0 
-0.11109217023375956 1305:1.0 2294:1.0 
-0.407291307096844 779:1.0 1016:1.0 
-0.4439988599808624 1570:1.0 2625:1.0 
-0.6113087024840606 2:1.0 2331:1.0 
-0.6101381272941205 171:1.0 508:1.0 
-0.11128218310229526 642:1.0 919:1.0 
-0.407257461767349 587:1.0 672:1.0 
-0.1111636321800544 1630:1.0 2242:1.0 
-1.0 1:1.0 738:1.0 
-1.0 2154:1.0 2295:1.0 
-0.4071952063013127 1889:1.0 2868:1.0 
-0.043888170378377556 2461:1.0 2549:1.0 
-0.0742572057510735 612:1.0 1385:1.0 
-0.12062164601066422 725:1.0 979:1.0 
-1.0 1824:1.0 2036:1.0 
-1.0 2706:1.0 2769:1.0 
-1.0 1354:1.0 1434:1.0 
-1.0 566:1.0 692:1.0 
-1.0 176:1.0 215:1.0 
-1.0 985:1.0 1323:1.0 
-0.4074309615705816 1582:1.0 2872:1.0 
-0.11128592068392312 156:1.0 2146:1.0 
-1.0 1407:1.0 2104:1.0 
-0.6110208743465835 111:1.0 260:1.0 
-0.08840564729920311 962:1.0 2408:1.0 
-0.6111747157378588 342:1.0 1186:1.0 
-0.9342494331442119 739:1.0 1875:1.0 
-0.6112698860905592 1074:1.0 2886:1.0 
-1.0 2858:1.0 2928:1.0 
-0.5558832271114393 775:1.0 1158:1.0 
-0.5556311315502587 205:1.0 859:1.0 
-1.0 50:1.0 351:1.0 
-0.0997928052542566 651:1.0 1257:1.0 
-0.5560364972325647 294:1.0 1641:1.0 
-0.30553720795187966 1669:1.0 2626:1.0 
-0.08033025020640808 280:1.0 1316:1.0 
-0.11117705008782053 51:1.0 2477:1.0 
-0.09824938015893958 249:1.0 2060:1.0 
-0.8091533108845343 1396:1.0 2167:1.0 
-0.43292852266178455 1373:1.0 2299:1.0 
-0.38686547559439977 866:1.0 1499:1.0 
-0.6110727919768737 1013:1.0 1386:1.0 
-0.22295613490333152 789:1.0 1140:1.0 
-1.0 412:1.0 527:1.0 
-1.0 328:1.0 598:1.0 
-1.0 365:1.0 366:1.0 
-0.3242012006095117 504:1.0 2565:1.0 
-1.0 1251:1.0 1430:1.0 
-0.6112028229595561 2051:1.0 2664:1.0 
-1.0 379:1.0 2017:1.0 
-1.0 23:1.0 2803:1.0 
-0.40733238339823413 2372:1.0 2465:1.0 
-1.0 392:1.0 657:1.0 
-1.0 4:1.0 2993:1.0 
-0.8921135386627073 2316:1.0 2685:1.0 
-0.11118099875517168 849:1.0 2475:1.0 
-0.2885382118373183 100:1.0 424:1.0 
-1.0 1983:1.0 2392:1.0 
-0.11117001116587755 343:1.0 1309:1.0 
-0.07423697242482044 656:1.0 1332:1.0 
-0.07387816258836363 612:1.0 2746:1.0 
-0.0884145155742429 1730:1.0 2916:1.0 
-0.07423880644218392 887:1.0 2030:1.0 
-0.11158865232914489 2326:1.0 2912:1.0 
-0.11145075941515253 276:1.0 1887:1.0 
-0.4076725490546418 773:1.0 909:1.0 
-0.7453653442251764 122:1.0 514:1.0 
-0.11367024694221187 756:1.0 1936:1.0 
-1.0 174:1.0 1239:1.0 
-0.6111720872498057 663:1.0 1331:1.0 
-0.6111616127254994 901:1.0 1111:1.0 
-0.08948918542750142 1489:1.0 1998:1.0 
-0.5003642441789842 671:1.0 968:1.0 
-1.0 1558:1.0 2745:1.0 
-1.0 667:1.0 696:1.0 
-0.22768217498042664 1731:1.0 2198:1.0 
-0.07424155283655459 2124:1.0 2578:1.0 
-0.4073162008495266 699:1.0 2485:1.0 
-0.4174128863143154 284:1.0 1008:1.0 
-0.5002762041077342 1932:1.0 2622:1.0 
-0.07287754338241645 370:1.0 730:1.0 
-0.5002303361562992 1443:1.0 2473:1.0 
-0.6111746063797316 1553:1.0 2903:1.0 
-0.08400815221145344 175:1.0 419:1.0 
-1.0 831:1.0 2611:1.0 
-0.32157112169176777 1584:1.0 2310:1.0 
-0.07397518597881639 1069:1.0 1884:1.0 
-0.5002692705245806 1572:1.0 2744:1.0 
-0.407681964332684 577:1.0 801:1.0 
-1.0 754:1.0 1244:1.0 
-0.6113819858542465 2081:1.0 2349:1.0 
-0.07440346817908777 2599:1.0 2654:1.0 
-0.36089676941723775 1054:1.0 2114:1.0 
-0.5232404411751581 2597:1.0 2851:1.0 
-0.0621122051340553 1499:1.0 2565:1.0 
-0.8758923066314033 278:1.0 1977:1.0 
-0.1583181793602459 7:1.0 2310:1.0 
-0.70940517247951 285:1.0 1249:1.0 
-1.0 685:1.0 1403:1.0 
-0.4074878616630302 838:1.0 1966:1.0 
-0.7461452177780538 1695:1.0 2248:1.0 
-0.4075468567355953 1508:1.0 2100:1.0 
-0.8053791210362662 250:1.0 1845:1.0 
-0.11070713520750045 986:1.0 1123:1.0 
-0.6112986122621294 729:1.0 1329:1.0 
-0.3055583938267576 1302:1.0 1306:1.0 
-0.07432415696205791 2076:1.0 2954:1.0 
-0.6111980899380658 1241:1.0 1729:1.0 
-1.0 631:1.0 2975:1.0 
-0.09904316119142278 851:1.0 2252:1.0 
-0.7407218454348575 34:1.0 846:1.0 
-0.6885508533326683 776:1.0 993:1.0 
-1.0 732:1.0 1421:1.0 
-0.7405433211070277 1652:1.0 2447:1.0 
-1.0 1808:1.0 2838:1.0 
-0.611278869831658 969:1.0 2996:1.0 
-1.0 220:1.0 1091:1.0 
-0.3057273848240811 1065:1.0 1440:1.0 
-1.0 1777:1.0 2013:1.0 
-1.0 1736:1.0 2599:1.0 
-0.33263901049524636 2036:1.0 2798:1.0 
-0.11137754289743623 1062:1.0 1368:1.0 
-0.749215367408011 1683:1.0 1745:1.0 
-0.045150958571324507 1352:1.0 1811:1.0 
-1.0 1377:1.0 1424:1.0 
-1.0 722:1.0 2364:1.0 
-1.0 114:1.0 578:1.0 
-0.08830695136440711 63:1.0 1395:1.0 
-0.23785865052067034 740:1.0 770:1.0 
-0.03925778058373933 1473:1.0 2147:1.0 
-0.6111616845697111 562:1.0 2828:1.0 
-0.06208084415257062 1313:1.0 2458:1.0 
-1.0 788:1.0 2262:1.0 
-0.1113627564499984 1174:1.0 1538:1.0 
-0.6112822051438597 2021:1.0 2665:1.0 
-0.48938329223211785 1590:1.0 2774:1.0 
-0.04509661016238589 1520:1.0 1879:1.0 
-1.0 741:1.0 2971:1.0 
-0.08950704088450331 546:1.0 1561:1.0 
-0.40759215134694726 1893:1.0 2484:1.0 
-0.11140801006596138 1154:1.0 2824:1.0 
-1.0 298:1.0 2020:1.0 
-1.0 37:1.0 2790:1.0 
-1.0 2004:1.0 2572:1.0 
-1.0 198:1.0 376:1.0 
-1.0 1709:1.0 2630:1.0 
-1.0 426:1.0 1741:1.0 
-0.07389527434660961 282:1.0 883:1.0 
-0.24456922841471754 2213:1.0 2759:1.0 
-0.3056553271175836 835:1.0 2037:1.0 
-0.07400295776804197 328:1.0 873:1.0 
-0.012597785293586877 1023:1.0 1682:1.0 
-1.0 6:1.0 989:1.0 
-0.34898069618106553 1481:1.0 2878:1.0 
-1.0 2424:1.0 2441:1.0 
-0.5556343924439855 2074:1.0 2179:1.0 
-0.07428505159567214 354:1.0 1442:1.0 
-0.07425639276084098 254:1.0 883:1.0 
-0.05932225909373556 316:1.0 2841:1.0 
-0.6112115433604746 716:1.0 1102:1.0 
-0.6450341068576413 2898:1.0 3000:1.0 
-1.0 1821:1.0 2143:1.0 
-0.40763565094182336 1900:1.0 2756:1.0 
-0.6111844698283636 1780:1.0 2495:1.0 
-0.9736328595082859 1872:1.0 2268:1.0 
-0.13080803729649765 1258:1.0 2950:1.0 
-1.0 2720:1.0 2883:1.0 
-0.11126599386062286 488:1.0 926:1.0 
-1.0 1579:1.0 2162:1.0 
-0.0725310461619777 914:1.0 1150:1.0 
-0.11118585745382742 467:1.0 1097:1.0 
-1.0 551:1.0 1384:1.0 
-1.0 370:1.0 2803:1.0 
-0.20958682571887086 634:1.0 1463:1.0 
-1.0 553:1.0 1623:1.0 
-1.0 957:1.0 2138:1.0 
-1.0 2428:1.0 2652:1.0 
-1.0 481:1.0 2803:1.0 
-0.34892797875121584 1481:1.0 1822:1.0 
-0.7406464316430793 2284:1.0 2697:1.0 
-1.0 41:1.0 1529:1.0 
-0.24122081461503347 1279:1.0 2861:1.0 
-0.07390573149634719 2292:1.0 2586:1.0 
-0.11114088429161417 1369:1.0 1372:1.0 
-0.5556276360551258 2400:1.0 2947:1.0 
-0.3602814465269987 1378:1.0 2932:1.0 
-0.018145164828483967 1942:1.0 2865:1.0 
-0.7407134290861469 269:1.0 1265:1.0 
-1.0 1303:1.0 2945:1.0 
-0.11120584101230616 2191:1.0 2591:1.0 
-1.0 2243:1.0 2760:1.0 
-0.04525379082866954 1480:1.0 1483:1.0 
-0.5557369247533063 2250:1.0 2359:1.0 
-1.0 1342:1.0 1578:1.0 
-0.03257725888372753 2073:1.0 2330:1.0 
-0.23807631544907037 1695:1.0 2162:1.0 
-0.48852141958843187 2942:1.0 2948:1.0 
-0.24027210565413545 1940:1.0 2609:1.0 
-0.28912858712651035 644:1.0 1327:1.0 
-1.0 1062:1.0 1266:1.0 
-0.5004266971557575 486:1.0 1878:1.0 
-0.4075971843325715 1063:1.0 1271:1.0 
-1.0 1027:1.0 1216:1.0 
-1.0 1533:1.0 2202:1.0 
-1.0 1330:1.0 1712:1.0 
-1.0 321:1.0 1073:1.0 
-1.0 358:1.0 2502:1.0 
-0.27801118921642826 2273:1.0 2793:1.0 
-0.11127473337358867 2246:1.0 2885:1.0 
-0.5548530170857683 134:1.0 2801:1.0 
-1.0 525:1.0 1974:1.0 
-1.0 1894:1.0 2382:1.0 
-1.0 446:1.0 645:1.0 
-0.04380904552309112 1480:1.0 2935:1.0 
-0.07421479765646363 1696:1.0 2314:1.0 
-0.36736941919482824 725:1.0 2519:1.0 
-0.23870520538365758 122:1.0 2505:1.0 
-1.0 1496:1.0 1874:1.0 
-1.0 86:1.0 267:1.0 
-0.30553720795187966 2233:1.0 2626:1.0 
-1.0 2002:1.0 2006:1.0 
-0.2001826478386576 1129:1.0 1189:1.0 
-0.24435730654220583 2728:1.0 2820:1.0 
-0.6434866979184719 717:1.0 890:1.0 
-0.6112027784182288 1581:1.0 2089:1.0 
-1.0 331:1.0 2809:1.0 
-0.6114326172847784 1211:1.0 1488:1.0 
-0.6115729774119744 621:1.0 1028:1.0 
-0.4074987684031315 1603:1.0 1781:1.0 
-0.8894482136376136 1953:1.0 2596:1.0 
-0.4883969796429036 2389:1.0 2635:1.0 
-1.0 1449:1.0 1802:1.0 
-0.1111466522084045 1317:1.0 2490:1.0 
-1.0 173:1.0 2391:1.0 
-0.6891146137856835 265:1.0 2794:1.0 
-1.0 103:1.0 1257:1.0 
-0.6665221557385368 1606:1.0 2823:1.0 
-0.7008753533136816 21:1.0 277:1.0 
-0.19937055815632498 1585:1.0 2720:1.0 
-1.0 360:1.0 1056:1.0 
-0.6892588024951597 423:1.0 954:1.0 
-0.11127326654956893 2348:1.0 2583:1.0 
-0.6112043556376683 720:1.0 1339:1.0 
-0.11128893107372462 1805:1.0 2040:1.0 
-1.0 578:1.0 1170:1.0 
-1.0 738:1.0 1593:1.0 
-0.4078237671671313 497:1.0 2141:1.0 
-0.07394014307338168 823:1.0 1569:1.0 
-0.09286587824997003 984:1.0 1092:1.0 
-1.0 196:1.0 292:1.0 
-0.2777236983728347 1812:1.0 2498:1.0 
-0.5090372090609905 266:1.0 2420:1.0 
-1.0 988:1.0 2144:1.0 
-0.11118183235466544 669:1.0 1465:1.0 
-1.0 1343:1.0 1919:1.0 
-0.1112726968019897 1090:1.0 2301:1.0 
-0.6113069938856479 771:1.0 1514:1.0 
-0.2885991533435547 1954:1.0 1988:1.0 
-0.9336350198752659 2327:1.0 2553:1.0 
-0.19899702078663323 17:1.0 970:1.0 
-1.0 890:1.0 1684:1.0 
-1.0 1553:1.0 2551:1.0 
-0.6108071789661221 378:1.0 977:1.0 
-0.11120024662201125 170:1.0 1578:1.0 
-1.0 2053:1.0 2638:1.0 
-1.0 1051:1.0 2136:1.0 
-0.12300643776581838 317:1.0 858:1.0 
-1.0 2448:1.0 2948:1.0 
-1.0 373:1.0 374:1.0 
-0.24200430056422842 1809:1.0 2171:1.0 
-0.6111261314503236 826:1.0 2142:1.0 
-0.36583929662729364 2395:1.0 2994:1.0 
-1.0 686:1.0 2703:1.0 
-1.0 32:1.0 1798:1.0 
-0.3056832436218253 1768:1.0 1837:1.0 
-1.0 2600:1.0 2681:1.0 
-0.3551791405797468 1726:1.0 1818:1.0 
-0.7411074562665576 1661:1.0 2719:1.0 
-1.0 14:1.0 1142:1.0 
-0.5763453569291588 1707:1.0 2782:1.0 
-0.6454738369241487 890:1.0 2298:1.0 
-1.0 1000:1.0 2399:1.0 
-0.11025467586793627 2165:1.0 2272:1.0 
-0.4868254300064317 650:1.0 2900:1.0 
-0.2892360612313872 644:1.0 2256:1.0 
-0.3609737109554185 2084:1.0 2211:1.0 
-0.4075887340114507 2672:1.0 2893:1.0 
-1.0 354:1.0 1046:1.0 
-0.11145814095648066 2627:1.0 2875:1.0 
-0.40722575004040995 759:1.0 2695:1.0 
-0.4076793431714454 1502:1.0 2845:1.0 
-0.2407942735870482 1680:1.0 1942:1.0 
-1.0 878:1.0 1495:1.0 
-0.3055349050333933 1382:1.0 2041:1.0 
-0.3559981210389131 346:1.0 2550:1.0 
-0.5342043723217381 1214:1.0 2569:1.0 
-1.0 460:1.0 1830:1.0 
-0.4073702645622452 244:1.0 475:1.0 
-0.6114436137583638 783:1.0 1197:1.0 
-0.6111765887677806 1009:1.0 1510:1.0 
-1.0 967:1.0 1244:1.0 
-0.6112758854084053 1619:1.0 2405:1.0 
-0.4074795393932784 145:1.0 1188:1.0 
-1.0 1862:1.0 2894:1.0 
-1.0 375:1.0 1397:1.0 
-0.24101932236808268 1279:1.0 2869:1.0 
-0.07390512983265943 1351:1.0 1971:1.0 
-0.0740604439520009 900:1.0 2217:1.0 
-1.0 397:1.0 2392:1.0 
-0.5468036238023278 659:1.0 1892:1.0 
-1.0 1425:1.0 1474:1.0 
-0.3660429155693147 2395:1.0 2866:1.0 
-0.5007737326331322 2834:1.0 2998:1.0 
-0.11400608115925495 907:1.0 2319:1.0 
-0.11121295048499341 2526:1.0 2937:1.0 
-0.8895773392092324 2407:1.0 2656:1.0 
-0.07417556623459753 1121:1.0 1873:1.0 
-0.07259776658814193 2257:1.0 2945:1.0 
-0.08282320967000956 263:1.0 2575:1.0 
-0.09558004392833355 686:1.0 2524:1.0 
-0.40720584514174774 2210:1.0 2676:1.0 
-0.4075313646862849 1662:1.0 2442:1.0 
-0.0884880138651139 93:1.0 1246:1.0 
-0.3041189208549471 1526:1.0 2726:1.0 
-0.3344404890735019 171:1.0 712:1.0 
-0.17570968723049687 1807:1.0 2849:1.0 
-0.7405828896798448 80:1.0 188:1.0 
-0.40760981442592004 411:1.0 2210:1.0 
-0.40754265765695363 542:1.0 1016:1.0 
-0.9005219909889006 280:1.0 1992:1.0 
-0.05168806392597522 1683:1.0 1872:1.0 
-1.0 614:1.0 899:1.0 
-0.111189591689313 471:1.0 526:1.0 
-0.40725666528072335 105:1.0 133:1.0 
-0.1109506498518611 2656:1.0 2712:1.0 
-0.35805637416117203 845:1.0 1237:1.0 
-1.0 349:1.0 570:1.0 
-0.237732541537872 1639:1.0 1959:1.0 
-1.0 405:1.0 1801:1.0 
-0.11128071297769782 327:1.0 2440:1.0 
-0.5089587257730195 36:1.0 1639:1.0 
-0.237739365598086 1182:1.0 2420:1.0 
-0.40729306911097884 2143:1.0 2518:1.0 
-1.0 1595:1.0 2052:1.0 
-0.8116080056100026 1180:1.0 2720:1.0 
-1.0 1290:1.0 1467:1.0 
-0.6113595768474474 760:1.0 2463:1.0 
-1.0 2230:1.0 2842:1.0 
-0.48909488612524965 2209:1.0 2385:1.0 
-0.08039742515441883 1178:1.0 2499:1.0 
-0.04519387910699546 1213:1.0 2549:1.0 
-0.002565176146305692 375:1.0 713:1.0 
-1.0 274:1.0 2787:1.0 
-0.11086414959988292 367:1.0 1643:1.0 
-1.0 67:1.0 1015:1.0 
-0.07393451150568706 887:1.0 1082:1.0 
-0.33396731193940776 1986:1.0 2637:1.0 
-0.088657823782364 1761:1.0 2735:1.0 
-0.11117304719903379 1774:1.0 2699:1.0 
-0.4119066014338363 2523:1.0 2904:1.0 
-0.6449122257310255 957:1.0 2086:1.0 
-0.4076011764263868 2305:1.0 2868:1.0 
-0.2442892436386903 2527:1.0 2689:1.0 
-1.0 1897:1.0 2245:1.0 
-1.0 2067:1.0 2383:1.0 
-0.07399703221170603 1689:1.0 2398:1.0 
-0.11028395401581753 1175:1.0 1613:1.0 
-1.0 1602:1.0 2750:1.0 
-1.0 1157:1.0 2078:1.0 
-1.0 1561:1.0 1699:1.0 
-0.07377822205093934 435:1.0 2741:1.0 
-1.0 2161:1.0 2910:1.0 
-0.11116130787606995 1960:1.0 2647:1.0 
-0.40761220445756025 1253:1.0 2336:1.0 
-0.611161554088838 1099:1.0 2043:1.0 
-0.24511215950364176 1542:1.0 2184:1.0 
-0.6440073974518603 957:1.0 1921:1.0 
-1.0 1472:1.0 2216:1.0 
-0.1115360788815111 1359:1.0 1628:1.0 
-0.07404408294184311 1956:1.0 2309:1.0 
-1.0 1444:1.0 2306:1.0 
-1.0 1794:1.0 2083:1.0 
-0.0739097914648143 755:1.0 2901:1.0 
-0.999634042872714 1028:1.0 1143:1.0 
-0.0991047933232862 227:1.0 310:1.0 
-0.08856509721202896 639:1.0 933:1.0 
-1.0 83:1.0 149:1.0 
-0.0030799085448307284 151:1.0 860:1.0 
-0.4073674151210851 48:1.0 1915:1.0 
-0.5237807546450352 1543:1.0 2696:1.0 
-1.0 726:1.0 2676:1.0 
-1.0 586:1.0 2949:1.0 
-0.6112841528709767 1972:1.0 2105:1.0 
-0.08838874655753479 804:1.0 1483:1.0 
-0.043663209866486224 323:1.0 2762:1.0 
-1.0 2196:1.0 2641:1.0 
-0.38589677055067684 504:1.0 2192:1.0 
-0.08862668126730586 1352:1.0 2132:1.0 
-0.49961620916283084 386:1.0 1869:1.0 
-0.5003408672840445 1700:1.0 2114:1.0 
-1.0 1263:1.0 2964:1.0 
-0.30561120322236823 463:1.0 1632:1.0 
-0.07587866713106148 474:1.0 2252:1.0 
-0.7411159457715732 2284:1.0 2449:1.0 
-0.34824232268128574 2147:1.0 2767:1.0 
-0.40755106005348907 1898:1.0 2345:1.0 
-0.7406446616362904 1586:1.0 2254:1.0 
-0.11116712965445172 1633:1.0 2436:1.0 
-0.15459161820000555 1222:1.0 2726:1.0 
-0.3808638674354343 1721:1.0 2499:1.0 
-1.0 915:1.0 2755:1.0 
-0.6021543012368422 183:1.0 1931:1.0 
-0.9991254790150018 1359:1.0 1994:1.0 
-0.11121178570813386 2694:1.0 2818:1.0 
-1.0 743:1.0 1316:1.0 
-1.0 978:1.0 1417:1.0 
-1.0 1448:1.0 2547:1.0 
-0.8893992576245964 241:1.0 1123:1.0 
-0.7338967746990679 1668:1.0 2889:1.0 
-0.9983381177409704 547:1.0 907:1.0 
-0.30014794471694045 2091:1.0 2768:1.0 
-0.17479332131688066 2696:1.0 2908:1.0 
-0.4076310950853963 238:1.0 2308:1.0 
-1.0 2024:1.0 2844:1.0 
-0.04283173315702227 769:1.0 2989:1.0 
-0.30555839382675765 461:1.0 1302:1.0 
-1.0 2814:1.0 2954:1.0 
-0.07184152412052247 1907:1.0 2860:1.0 
-0.5962635586680656 1647:1.0 2949:1.0 
-1.0 214:1.0 1112:1.0 
-1.0 1004:1.0 2978:1.0 
-0.4891204872320582 119:1.0 617:1.0 
-0.40769579620496926 1790:1.0 1876:1.0 
-0.11120760549778624 1308:1.0 2988:1.0 
-1.0 728:1.0 2666:1.0 
-0.5003038968624598 251:1.0 2012:1.0 
-0.15572721352805166 2318:1.0 2636:1.0 
-1.0 318:1.0 1523:1.0 
-0.4437255311160301 719:1.0 2805:1.0 
-1.0 1194:1.0 1305:1.0 
-0.748100743981147 259:1.0 1067:1.0 
-0.2412958068189761 157:1.0 476:1.0 
-1.0 742:1.0 1465:1.0 
-0.6111766755260496 2080:1.0 2338:1.0 
-0.49060775926413863 278:1.0 597:1.0 
-0.11117715218894836 727:1.0 1283:1.0 
-0.6111785954673847 1293:1.0 1323:1.0 
-0.407782012692187 870:1.0 2686:1.0 
-1.0 1385:1.0 2640:1.0 
-1.0 1627:1.0 1938:1.0 
-0.3057443947842643 1837:1.0 2370:1.0 
-0.1734443814836594 1722:1.0 2130:1.0 
-0.11122195500281734 643:1.0 2656:1.0 
-1.0 2317:1.0 2837:1.0 
-0.24299975452148004 673:1.0 2015:1.0 
-0.08958445391522166 323:1.0 2897:1.0 
-0.2422461446258669 125:1.0 2201:1.0 
-0.6112081195206966 963:1.0 1344:1.0 
-0.11139411470031599 2258:1.0 2367:1.0 
-0.11103339595004119 1865:1.0 2467:1.0 
-1.0 2290:1.0 2893:1.0 
-0.3507804856500822 372:1.0 2130:1.0 
-1.0 2333:1.0 2395:1.0 
-0.6111518075475173 1577:1.0 2985:1.0 
-0.3657981375040787 597:1.0 1764:1.0 
-0.11217213720288036 321:1.0 470:1.0 
-0.09804980377457917 945:1.0 1277:1.0 
-0.11128858327910984 173:1.0 676:1.0 
-0.33374567642371467 414:1.0 1922:1.0 
-1.0 165:1.0 1363:1.0 
-0.07228913463869488 101:1.0 1152:1.0 
-0.07407283709390983 1381:1.0 2010:1.0 
-0.611206404263966 2531:1.0 2848:1.0 
-1.0 11:1.0 1289:1.0 
-0.11177410875151161 1533:1.0 2617:1.0 
-0.07421943373105219 1351:1.0 2462:1.0 
-0.12447233441887451 1530:1.0 1671:1.0 
-0.332926079345511 136:1.0 1922:1.0 
-0.22380052167424355 600:1.0 2458:1.0 
-1.0 528:1.0 980:1.0 
-1.0 1524:1.0 2952:1.0 
-0.012062340549315598 1059:1.0 1361:1.0 
-0.12421357244350398 125:1.0 2395:1.0 
-0.07429258873023059 900:1.0 1057:1.0 
-1.0 1519:1.0 1555:1.0 
-0.40759701414155397 319:1.0 721:1.0 
-1.0 601:1.0 611:1.0 
-0.5561399432435947 2152:1.0 2231:1.0 
-0.29791907935018 1073:1.0 2050:1.0 
-0.07446512746385811 823:1.0 1475:1.0 
-0.8887428192846007 1358:1.0 2987:1.0 
-0.4074913300787304 105:1.0 768:1.0 
-0.611279713286972 1184:1.0 2910:1.0 
-0.07416763888495428 572:1.0 1714:1.0 
-0.7399149077947353 1507:1.0 2834:1.0 
-0.3615503073467023 230:1.0 2183:1.0 
-0.08874904115461271 1919:1.0 2735:1.0 
-0.6110035215423908 830:1.0 1991:1.0 
-0.11144343610348367 997:1.0 1273:1.0 
-0.6108859638891762 726:1.0 2791:1.0 
-0.9703837765841323 419:1.0 1778:1.0 
-0.07386329641871608 2018:1.0 2163:1.0 
-1.0 2193:1.0 2336:1.0 
-1.0 517:1.0 1033:1.0 
-1.0 21:1.0 565:1.0 
-0.4172963854249208 212:1.0 1073:1.0 
-0.111178775632754 549:1.0 2574:1.0 
-0.43207432545216545 834:1.0 2443:1.0 
-0.8611884950195989 1859:1.0 2285:1.0 
-0.7766864658778285 54:1.0 1140:1.0 
-0.07434823388890785 922:1.0 960:1.0 
-0.023319848244501257 474:1.0 1208:1.0 
-0.6111531582105525 1200:1.0 1405:1.0 
-0.6112126516423949 627:1.0 1607:1.0 
-1.0 701:1.0 1351:1.0 
-0.4891495276670986 2180:1.0 2335:1.0 
-0.8035534423628137 107:1.0 1165:1.0 
-0.8419967472819818 1976:1.0 2529:1.0 
-0.5233861946747296 301:1.0 345:1.0 
-0.11119072738273689 603:1.0 841:1.0 
-0.641104603368491 316:1.0 691:1.0 
-1.0 224:1.0 693:1.0 
-1.0 998:1.0 1138:1.0 
-0.010880265076087775 1313:1.0 2155:1.0 
-0.1109517472485978 2289:1.0 2911:1.0 
-0.40726975163568246 1712:1.0 2141:1.0 
-0.3542379738433586 674:1.0 739:1.0 
-0.3057273848240811 601:1.0 1065:1.0 
-0.084010297516146 40:1.0 419:1.0 
-0.6915735610642102 430:1.0 1092:1.0 
-0.6113644879610245 1604:1.0 2833:1.0 
-0.09565058644008173 165:1.0 1087:1.0 
-1.0 189:1.0 255:1.0 
-3.6565450640896335E-4 583:1.0 726:1.0 
-1.0 480:1.0 1471:1.0 
-0.5552450971467011 2364:1.0 2416:1.0 
-1.0 1532:1.0 2843:1.0 
-0.2776055781801222 2498:1.0 2675:1.0 
-1.0 1345:1.0 1651:1.0 
-0.9834315224039089 427:1.0 2734:1.0 
-1.0 326:1.0 512:1.0 
-0.4916508331735032 1068:1.0 2248:1.0 
-0.36072977682125507 992:1.0 1371:1.0 
-0.2553287927022654 920:1.0 1137:1.0 
-0.19563113890235914 790:1.0 1858:1.0 
-1.0 628:1.0 1123:1.0 
-0.6112040563221148 2096:1.0 2115:1.0 
-1.0 1497:1.0 2092:1.0 
-0.0558050422082198 2237:1.0 2576:1.0 
-1.0 2303:1.0 2772:1.0 
-1.0 45:1.0 1903:1.0 
-0.0019571836787750096 556:1.0 2165:1.0 
-0.40739280518712645 496:1.0 1900:1.0 
-0.5245342915071243 181:1.0 1906:1.0 
-0.6449712421381028 1782:1.0 2009:1.0 
-0.845027667230595 776:1.0 2189:1.0 
-0.40977557875361315 832:1.0 2228:1.0 
-0.5556872472637862 1804:1.0 2179:1.0 
-0.07353235110013709 803:1.0 1437:1.0 
-0.6111786456212501 1478:1.0 2800:1.0 
-0.6112116856729369 2264:1.0 2852:1.0 
-0.11116584312869246 2197:1.0 2969:1.0 
-1.0 765:1.0 2330:1.0 
-0.3497379527593773 18:1.0 2387:1.0 
-1.0 1940:1.0 2990:1.0 
-1.0 184:1.0 1722:1.0 
-0.7408794336432323 188:1.0 2355:1.0 
-1.0 1190:1.0 1365:1.0 
-1.0 1750:1.0 2480:1.0 
-0.48754914288067897 164:1.0 1049:1.0 
-0.6674746462107541 1397:1.0 2270:1.0 
-1.0 237:1.0 1436:1.0 
-0.08877916789797696 546:1.0 2251:1.0 
-0.0743273826131493 848:1.0 1080:1.0 
-0.07436310806860918 573:1.0 873:1.0 
-9.774149342434146E-4 2071:1.0 2430:1.0 
-0.7339432233709762 417:1.0 999:1.0 
-1.0 1832:1.0 2527:1.0 
-0.3896678457845183 360:1.0 2498:1.0 
-0.08864475411856015 593:1.0 2194:1.0 
-0.111046427674802 1611:1.0 2235:1.0 
-1.0 2733:1.0 2775:1.0 
-0.4372347730783037 1600:1.0 2767:1.0 
-0.07326111085067044 1399:1.0 2915:1.0 
-0.6032911408649941 1023:1.0 2986:1.0 
-0.30556366168510074 1850:1.0 2176:1.0 
-0.7772713038785315 2152:1.0 2316:1.0 
-0.11132033890767931 2554:1.0 2601:1.0 
-0.22310160907974966 281:1.0 2865:1.0 
-1.0 27:1.0 48:1.0 
-1.0 364:1.0 2172:1.0 
-0.8886230615438749 49:1.0 2558:1.0 
-0.6111002636397695 252:1.0 1995:1.0 
-0.7410532672023121 1219:1.0 1946:1.0 
-1.0 1907:1.0 2089:1.0 
-0.40730008911430204 2064:1.0 2641:1.0 
-0.40752803477297445 1552:1.0 1624:1.0 
-1.0 943:1.0 2962:1.0 
-0.7369669151667594 680:1.0 2754:1.0 
-0.581295809859139 7:1.0 358:1.0 
-1.0 1637:1.0 2371:1.0 
-1.0 2164:1.0 2634:1.0 
-0.34957680205883274 1474:1.0 2387:1.0 
-0.4075537812678849 672:1.0 703:1.0 
-0.4076122044575603 1253:1.0 2404:1.0 
-1.0 1032:1.0 2922:1.0 
-0.15044733440780284 575:1.0 2929:1.0 
-0.3056671379692485 1890:1.0 2626:1.0 
-0.39075282528941163 17:1.0 2607:1.0 
-0.6443981585655414 606:1.0 948:1.0 
-0.11705159546463537 167:1.0 1509:1.0 
-1.0 1072:1.0 1630:1.0 
-0.44488611503564773 1877:1.0 2962:1.0 
-1.0 758:1.0 1231:1.0 
-0.2895910259821795 588:1.0 717:1.0 
-1.0 1382:1.0 1973:1.0 
-0.8053368468083705 1521:1.0 2220:1.0 
-0.28855620508620183 2009:1.0 2403:1.0 
-0.24396747352569587 737:1.0 2302:1.0 
-1.0 834:1.0 1727:1.0 
-1.0 1046:1.0 1828:1.0 
-1.0 675:1.0 2897:1.0 
-0.08900402584976849 274:1.0 2874:1.0 
-0.40728118428787174 2590:1.0 2980:1.0 
-1.0 2261:1.0 2433:1.0 
-0.39751634640871913 1129:1.0 1647:1.0 
-0.7174786619086055 834:1.0 1237:1.0 
-0.40805308953102054 191:1.0 1419:1.0 
-1.0 1943:1.0 2014:1.0 
-0.610928151684806 1056:1.0 1270:1.0 
-1.0 1260:1.0 2471:1.0 
-0.8877690879113913 221:1.0 675:1.0 
-1.0 2839:1.0 2874:1.0 
-1.0 1747:1.0 2101:1.0 
-1.0 133:1.0 334:1.0 
-0.3056970991453808 146:1.0 1382:1.0 
-0.7774772552277659 2270:1.0 2493:1.0 
-0.24664853857866817 979:1.0 2201:1.0 
-0.15529245392256025 524:1.0 1503:1.0 
-1.0 1994:1.0 2475:1.0 
-0.7237088962702888 1412:1.0 1872:1.0 
-0.40759105910631704 138:1.0 2847:1.0 
-1.0 65:1.0 2377:1.0 
-1.0 1011:1.0 2227:1.0 
-0.28871972810097823 425:1.0 2705:1.0 
-0.6111663913396054 182:1.0 1119:1.0 
-0.20690553105464274 183:1.0 2876:1.0 
-0.4072028010016317 242:1.0 598:1.0 
-0.3055238266832593 415:1.0 2502:1.0 
-1.0 2011:1.0 2790:1.0 
-1.0 241:1.0 2676:1.0 
-0.04409620495966579 239:1.0 1095:1.0 
-0.011714091893811923 970:1.0 1403:1.0 
-0.7546184704253673 999:1.0 1132:1.0 
-1.0 1981:1.0 2003:1.0 
-1.0 1770:1.0 2669:1.0 
-0.11103183961402688 516:1.0 581:1.0 
-1.0 806:1.0 1083:1.0 
-0.5338673867474781 814:1.0 1933:1.0 
-0.044125982265801805 1879:1.0 2230:1.0 
-0.36153006427484413 406:1.0 2992:1.0 
-0.09481088877074764 2249:1.0 2431:1.0 
-0.2892862672245402 2058:1.0 2748:1.0 
-0.4115593073211655 557:1.0 1387:1.0 
-0.5555365759917096 1597:1.0 2049:1.0 
-0.7012533392210984 872:1.0 1008:1.0 
-0.5555238988687534 294:1.0 880:1.0 
-0.3615372314987092 2069:1.0 2281:1.0 
-0.861448273891561 1658:1.0 2984:1.0 
-0.11114623560925799 117:1.0 1325:1.0 
-0.11118611641929235 307:1.0 1311:1.0 
-0.11117822584357714 530:1.0 2452:1.0 
-1.0 1474:1.0 2979:1.0 
-1.0 50:1.0 295:1.0 
-4.0001171151821113E-4 378:1.0 1991:1.0 
-0.11117180205115729 1402:1.0 2991:1.0 
-1.0 53:1.0 2288:1.0 
-0.4076569006171695 754:1.0 1425:1.0 
-1.0 965:1.0 1115:1.0 
-1.0 1139:1.0 1540:1.0 
-0.8059207174729434 1521:1.0 2700:1.0 
-0.7744571526238263 325:1.0 2187:1.0 
-0.7549462926029212 2335:1.0 2889:1.0 
-0.3611529096268132 1955:1.0 2137:1.0 
-0.32457772372816607 910:1.0 2804:1.0 
-0.046824978756002084 667:1.0 769:1.0 
-1.0 55:1.0 1010:1.0 
-0.5244860264041111 1498:1.0 1722:1.0 
-0.45283771980820847 1006:1.0 2619:1.0 
-0.5939557859908999 1023:1.0 1463:1.0 
-0.11113863224525652 41:1.0 1289:1.0 
-1.0 702:1.0 768:1.0 
-0.6114427706543455 529:1.0 2094:1.0 
-0.6112491797479178 104:1.0 287:1.0 
-0.6111728163585517 932:1.0 2540:1.0 
-0.7410997316061796 1295:1.0 2402:1.0 
-0.30562441428617726 330:1.0 2176:1.0 
-0.21095263314439905 17:1.0 1027:1.0 
-0.11115100791477311 1264:1.0 2661:1.0 
-0.09015937357837761 167:1.0 212:1.0 
-0.2886214634750122 1897:1.0 2533:1.0 
-0.7409834357221742 554:1.0 1269:1.0 
-0.5753890977121291 535:1.0 1927:1.0 
-0.2892910123504443 1694:1.0 1921:1.0 
-0.07406232041582247 1964:1.0 2127:1.0 
-0.11057577162844581 1612:1.0 1841:1.0 
-0.18010139090821642 1992:1.0 2381:1.0 
-0.6893005835931492 2054:1.0 2920:1.0 
-0.36085804589963866 403:1.0 818:1.0 
-1.0 529:1.0 1510:1.0 
-0.07425345945667083 45:1.0 2586:1.0 
-0.4041809685253089 375:1.0 1070:1.0 
-0.11133756401787581 764:1.0 1848:1.0 
-0.11120673822887103 1598:1.0 2392:1.0 
-0.2451305036826857 1718:1.0 2302:1.0 
-1.0 997:1.0 1061:1.0 
-0.24505567326670963 2837:1.0 2942:1.0 
-0.443012323332755 1513:1.0 2374:1.0 
-0.7908449736045564 43:1.0 748:1.0 
-0.07402678284666156 981:1.0 2076:1.0 
-1.0 619:1.0 1733:1.0 
-0.6113776638400066 29:1.0 2439:1.0 
-1.0 475:1.0 806:1.0 
-1.0 1990:1.0 2085:1.0 
-0.611171504661146 102:1.0 744:1.0 
-0.40975156735368296 832:1.0 2232:1.0 
-0.40754952181421195 498:1.0 1360:1.0 
-0.3058539288156459 2168:1.0 2502:1.0 
-0.07388105856269184 1574:1.0 2397:1.0 
-0.07477571840438219 730:1.0 856:1.0 
-0.23911783864674244 939:1.0 1137:1.0 
-0.6111730199669909 1003:1.0 1038:1.0 
-0.3499044568093057 1741:1.0 2768:1.0 
-0.24435730654220583 2691:1.0 2820:1.0 
-1.0 1530:1.0 1936:1.0 
-0.39674907442731466 1479:1.0 2438:1.0 
-1.0 1278:1.0 2592:1.0 
-1.0 256:1.0 1292:1.0 
-1.0 1537:1.0 2548:1.0 
-0.6113822956217847 473:1.0 794:1.0 
-0.611310516436735 523:1.0 1220:1.0 
-1.0 329:1.0 2217:1.0 
-0.5336052759749969 524:1.0 1579:1.0 
-0.24428803274635558 2759:1.0 2776:1.0 
-0.07391678151090883 82:1.0 2621:1.0 
-0.24139509019686345 1507:1.0 2297:1.0 
-0.7012059630475506 405:1.0 1008:1.0 
-0.30567087081076805 1376:1.0 2113:1.0 
-1.0 1967:1.0 2471:1.0 
-0.8608403031944091 968:1.0 1744:1.0 
-1.0 47:1.0 926:1.0 
-0.30536779274979803 852:1.0 2207:1.0 
-0.2890649112740446 1726:1.0 1739:1.0 
-0.6114527168101631 1747:1.0 2545:1.0 
-0.4076412462402028 2112:1.0 2650:1.0 
-1.0 1324:1.0 2520:1.0 
-0.07442909800795314 1884:1.0 2107:1.0 
-0.7773425380316207 431:1.0 817:1.0 
-1.0 57:1.0 540:1.0 
-1.0 492:1.0 2138:1.0 
-1.0 407:1.0 2335:1.0 
-1.0 363:1.0 371:1.0 
-0.6042782231728939 457:1.0 1931:1.0 
-4.165205689166118E-4 1221:1.0 1601:1.0 
-1.0 1998:1.0 2075:1.0 
-1.0 1950:1.0 2076:1.0 
-0.7512892724017336 1923:1.0 2369:1.0 
-1.0 1287:1.0 2879:1.0 
-1.0 1:1.0 2165:1.0 
-1.0 2407:1.0 2555:1.0 
-0.289265578824876 931:1.0 2169:1.0 
-0.10875599016962811 556:1.0 1493:1.0 
-0.7407037529494771 520:1.0 2809:1.0 
-1.0 1314:1.0 2512:1.0 
-1.0 1027:1.0 1467:1.0 
-0.8613159768623816 386:1.0 1235:1.0 
-0.5578573678800187 325:1.0 772:1.0 
-0.7336323067916388 2944:1.0 2963:1.0 
-0.07409598674279069 261:1.0 922:1.0 
-1.0 2030:1.0 2195:1.0 
-1.0 2810:1.0 2871:1.0 
-0.7409112943717151 491:1.0 1652:1.0 
-1.0 93:1.0 2751:1.0 
-0.5754170035076248 929:1.0 2546:1.0 
-1.0 1908:1.0 1917:1.0 
-0.4061349107964058 1165:1.0 2438:1.0 
-1.0 352:1.0 451:1.0 
-0.1111808195983014 1142:1.0 2383:1.0 
-0.7411226693874348 1435:1.0 2975:1.0 
-1.0 1612:1.0 1677:1.0 
-0.7407460219454916 911:1.0 1035:1.0 
-0.05556041407157722 2332:1.0 2829:1.0 
-0.6112040265850043 1650:1.0 2752:1.0 
-0.24089105201442346 1942:1.0 1978:1.0 
-0.11120395574119205 1392:1.0 1870:1.0 
-1.0 1746:1.0 2914:1.0 
-0.11117657434485637 194:1.0 329:1.0 
-0.4745161227193011 2738:1.0 2804:1.0 
-0.08997097574402174 2751:1.0 2989:1.0 
-0.11121200554325777 337:1.0 637:1.0 
-0.1764587147380726 736:1.0 1534:1.0 
-0.36732792240094686 2007:1.0 2632:1.0 
-0.5556132710486708 2206:1.0 2668:1.0 
-1.0 727:1.0 1956:1.0 
-0.611244212196932 1093:1.0 1935:1.0 
-1.0 279:1.0 831:1.0 
-1.0 269:1.0 2240:1.0 
-1.0 1160:1.0 1165:1.0 
-0.6440744338894981 1138:1.0 1720:1.0 
-0.11345192838031198 1589:1.0 2374:1.0 
-1.0 898:1.0 1477:1.0 
-1.0 2649:1.0 2808:1.0 
-0.611274762839537 2219:1.0 2645:1.0 
-0.07538944325724828 620:1.0 2303:1.0 
-1.0 405:1.0 2412:1.0 
-1.0 1660:1.0 2123:1.0 
-0.08921940962527891 374:1.0 1196:1.0 
-0.24388389692536352 2774:1.0 2837:1.0 
-0.7460043220887057 430:1.0 1473:1.0 
-0.4077591925058186 232:1.0 2110:1.0 
-1.0 23:1.0 312:1.0 
-0.20964904086150032 2438:1.0 2758:1.0 
-0.11126673767768258 37:1.0 2070:1.0 
-0.24055958611739683 1047:1.0 1719:1.0 
-0.086196950591413 667:1.0 1771:1.0 
-0.08839552184339619 492:1.0 1127:1.0 
-0.3478111511369544 372:1.0 2849:1.0 
-0.7495773658443337 1715:1.0 2268:1.0 
-0.023306152590937934 903:1.0 1257:1.0 
-0.6097601492180382 611:1.0 1081:1.0 
-0.2434515457003687 2857:1.0 2993:1.0 
-0.07425716177429217 1937:1.0 2163:1.0 
-1.0 80:1.0 1225:1.0 
-0.4891919318399914 464:1.0 2513:1.0 
-0.6989398981763875 736:1.0 2062:1.0 
-0.11098258718420162 982:1.0 1967:1.0 
-0.6139782943375125 1969:1.0 1977:1.0 
-0.6480674416121768 301:1.0 736:1.0 
-0.288970529240916 1738:1.0 1802:1.0 
-0.02163449635103265 571:1.0 2381:1.0 
-1.0 2158:1.0 2476:1.0 
-1.0 618:1.0 1224:1.0 
-0.6111581178113124 1948:1.0 2722:1.0 
-0.33309809473733426 88:1.0 2750:1.0 
-0.6112728455102188 300:1.0 2684:1.0 
-0.5967180946170377 832:1.0 1573:1.0 
-0.8615860474106249 1148:1.0 2956:1.0 
-0.4073601419753048 445:1.0 1425:1.0 
-0.6892320938253622 265:1.0 1455:1.0 
-1.0 1481:1.0 2373:1.0 
-1.0 1611:1.0 2029:1.0 
-1.0 1588:1.0 2056:1.0 
-0.40759010977001314 314:1.0 679:1.0 
-0.8892974992890297 134:1.0 2225:1.0 
-0.8130627174045091 1071:1.0 2949:1.0 
-0.043928124007324154 688:1.0 2570:1.0 
-0.8897421396161641 1513:1.0 2976:1.0 
-0.4854124414660412 1653:1.0 2223:1.0 
-0.8380285827282469 610:1.0 659:1.0 
-0.8610512408605955 357:1.0 1438:1.0 
-1.0 1514:1.0 2995:1.0 
-0.7399401220828399 137:1.0 510:1.0 
-0.7407873945663466 1035:1.0 1827:1.0 
-0.611202205249449 1698:1.0 2680:1.0 
-0.07438716115507085 755:1.0 1674:1.0 
-0.07445066992951951 141:1.0 1903:1.0 
-0.20932060188196008 107:1.0 2376:1.0 
-1.0 1430:1.0 2559:1.0 
-1.0 1657:1.0 2321:1.0 
-0.40761431473852916 2259:1.0 2817:1.0 
-0.25506859307249125 427:1.0 647:1.0 
-0.8360610476782444 1294:1.0 2506:1.0 
-0.23685926010496383 203:1.0 1433:1.0 
-1.0 64:1.0 2667:1.0 
-1.0 515:1.0 2187:1.0 
-1.0 1899:1.0 2784:1.0 
-0.39102107735957065 1509:1.0 2075:1.0 
-0.30557896823413205 1376:1.0 2999:1.0 
